[{"score": 1483, "weights": [[[-0.2427683025598526, -1.1301870346069336, -1.1110529899597168, 0.01951467990875244, -1.0403753519058228, -0.6200559735298157], [0.07076933979988098, -0.5160159468650818, -0.30988866090774536, 0.20235955715179443, 0.2236747145652771, 0.11519524455070496], [-0.48739907145500183, -0.255484014749527, -0.30175697803497314, -0.1354067176580429, -0.38133278489112854, -0.29783135652542114], [-2.2474193572998047, 0.048683881759643555, -0.9267279505729675, -0.881068229675293, -0.6283607482910156, 0.4726664423942566], [-1.5332108736038208, 0.3736438751220703, -0.5024717450141907, 0.15167993307113647, -0.4622540771961212, -0.38081035017967224], [-0.23527273535728455, -0.595940351486206, -1.5172080993652344, -0.02983144484460354, -2.1073827743530273, -1.8710811138153076], [-0.35667556524276733, -0.6443543434143066, -1.258591651916504, -2.497903823852539, 0.007815893739461899, -0.4427313506603241], [-0.5369691848754883, -0.2211940586566925, -2.2482457160949707, -0.6531587839126587, -0.38182467222213745, -0.8605942726135254], [-0.36057257652282715, -0.5063266158103943, -0.7129654884338379, -0.8475472927093506, -0.0939781442284584, -0.4850854277610779], [-0.9281672239303589, -0.2942979037761688, 0.6749904155731201, -0.14392328262329102, -1.273423671722412, 0.1136532574892044], [-1.375475525856018, 0.287554532289505, 0.05735509470105171, -1.228294014930725, -0.4930848479270935, 0.28624629974365234], [-0.4788500964641571, 0.5441133975982666, -0.4673565626144409, 0.09064063429832458, -0.20423531532287598, -0.08672894537448883], [0.7514383792877197, -0.43975508213043213, 0.13252677023410797, -0.5222427248954773, -0.7867041230201721, -0.9599290490150452], [-1.7334020137786865, 0.5558332800865173, -0.8309952020645142, -0.4287053346633911, -0.3293677568435669, -2.9263224601745605], [-0.5188949108123779, -1.6926429271697998, -0.38978222012519836, -0.6321405172348022, 0.07474200427532196, -0.8772450685501099], [-1.699038028717041, -2.071894645690918, -1.3884860277175903, -0.474148154258728, -0.9404033422470093, 0.9301480054855347]], [[-0.7337421178817749, -0.10664674639701843, 0.9313372373580933, 2.041811466217041, -0.09194014966487885, -2.015127658843994, -1.2120575904846191, 0.2280305027961731, -0.8853539228439331, -0.9631646871566772, 0.7570568323135376, -0.5675637722015381, -0.9396246671676636, 0.2243584394454956, -0.4879446029663086, 0.24474531412124634], [-0.9648317694664001, 1.1213548183441162, 0.4111044406890869, 0.04541240632534027, 0.4771736264228821, -1.35917067527771, -0.2530806064605713, -1.2151597738265991, -0.546339750289917, -0.07245302200317383, -0.11627247184515, -1.418916940689087, -1.2208189964294434, -1.1262376308441162, -1.342853307723999, -0.9517739415168762], [-0.979062020778656, -0.48738861083984375, -0.5958690643310547, -0.4163304567337036, 0.37096989154815674, -0.47113531827926636, -0.6788632869720459, -2.1379315853118896, 0.09104131162166595, 0.4266657829284668, -0.1579795777797699, -2.242194414138794, 0.3638448417186737, -0.1789020299911499, -1.325329303741455, 0.536581814289093], [-1.3371179103851318, -0.13086986541748047, -0.19758006930351257, -1.3816616535186768, 0.6443554162979126, -1.319075584411621, 0.5997857451438904, -0.5894734859466553, 0.619968593120575, 0.44799089431762695, 1.2513878345489502, -0.7650653123855591, 1.110558271408081, -0.3913258910179138, 0.5068954229354858, -0.27554386854171753], [-1.2798271179199219, -0.28417807817459106, -0.17613360285758972, -0.7615631818771362, 0.6997470259666443, -1.9125374555587769, 0.6630148887634277, 0.0017925809370353818, 1.1536457538604736, 0.025625787675380707, 0.5512288808822632, 1.2501890659332275, 0.530981183052063, 0.22986942529678345, 0.5150159597396851, -1.0314903259277344], [0.6275585889816284, -0.7976515293121338, 1.6123712062835693, -0.17511475086212158, -0.05380449444055557, -1.101949691772461, -0.0621650293469429, -2.4721999168395996, -0.1696290671825409, 0.08707375079393387, -0.8057703971862793, -0.3837401270866394, 0.34285038709640503, 0.3833249807357788, 0.9216898679733276, -0.1816299557685852], [-2.3246750831604004, 0.6907751560211182, 1.6434659957885742, -1.9844489097595215, -0.2504120469093323, 0.3726985454559326, -0.29056620597839355, -0.13887786865234375, -0.34038132429122925, -0.31612616777420044, -0.2311682403087616, 0.8841297626495361, -0.9844827651977539, -2.459728240966797, 0.20602351427078247, -0.7928454875946045], [-0.040433526039123535, -0.07144661247730255, 0.7465599179267883, -0.8074758052825928, 1.4447522163391113, 0.6306833028793335, -1.3050751686096191, -1.2042405605316162, 0.1869119107723236, -0.38632357120513916, 0.20184892416000366, 0.30524927377700806, -0.4103580713272095, 0.15851619839668274, -0.9251455664634705, 0.6499514579772949], [-0.4037472605705261, -0.05395607650279999, -0.5045685768127441, -1.471174716949463, 1.2330677509307861, 1.2462379932403564, 0.8426551818847656, -0.8607407808303833, 0.8834621906280518, -0.08791583776473999, 0.014876902103424072, -0.1449858397245407, -1.2809169292449951, -0.477789044380188, -0.7499146461486816, 0.8892068862915039], [-0.06635690480470657, -0.45819103717803955, -1.5048713684082031, -0.14069843292236328, -0.15691491961479187, -0.3263816237449646, 0.5526528358459473, -0.07283321768045425, -0.049103349447250366, -1.3081364631652832, -1.7658483982086182, 1.0360405445098877, -0.5288478136062622, 1.247868299484253, -0.7918422222137451, 0.3526573181152344], [-0.9114617109298706, 0.8266241550445557, 0.6376997232437134, -1.328962802886963, -0.5175166130065918, -1.1591427326202393, 0.8133236169815063, 0.7730840444564819, -1.481029748916626, 0.07291799783706665, -1.6471068859100342, -0.7949481010437012, 0.068581223487854, -0.33698201179504395, -1.8752877712249756, 0.6510697603225708], [1.5995163917541504, 0.4107254147529602, -1.2482290267944336, -1.5122005939483643, -0.5272892713546753, -0.08659422397613525, 0.37633103132247925, -1.2991669178009033, -1.630530834197998, -0.012573406100273132, 0.28538787364959717, -0.12005752325057983, -0.11952991783618927, 0.04166256636381149, 0.018349114805459976, -0.7995212078094482], [-1.2419610023498535, 0.4194868206977844, -0.30137544870376587, -0.07774649560451508, -0.8741390109062195, -1.0584475994110107, -0.7836157083511353, -0.6291244626045227, -1.6546236276626587, -1.2089815139770508, -0.613242506980896, -0.5541932582855225, 0.4449699819087982, 0.15180175006389618, -1.0551044940948486, -1.4947991371154785], [-0.9812300801277161, -0.852515459060669, 0.738759458065033, -0.9371229410171509, -1.2441411018371582, -1.6026487350463867, -0.7752165794372559, 0.25819170475006104, -1.3870718479156494, -0.38645148277282715, -0.41654545068740845, -1.8550691604614258, -1.6989405155181885, -0.5187480449676514, 0.2994462847709656, -0.4212924838066101], [-0.6911332607269287, -1.3518829345703125, -1.0328329801559448, -0.30172836780548096, 0.6929080486297607, -0.3637843728065491, -0.5157980918884277, 0.31439703702926636, 2.3221960067749023, 0.27301132678985596, 0.6691404581069946, -0.793321967124939, 0.2861764430999756, -0.662460207939148, 0.0986366719007492, 2.366602897644043], [-0.1739354133605957, -0.17017194628715515, -0.3029884696006775, -0.3303912281990051, -0.3787323236465454, 0.8672994375228882, -0.4773741662502289, 0.20027440786361694, 0.37955838441848755, 0.42663389444351196, -1.7135844230651855, 0.8358114957809448, -0.08224524557590485, 1.7100136280059814, -0.5046781301498413, 1.087677001953125]], [[-1.3413372039794922, -0.8164024353027344, -0.2413274645805359, 0.9903589487075806, 0.018554573878645897, 0.5180054903030396, -1.1199114322662354, -1.4744952917099, -0.09715586155653, -0.1159365251660347, 0.6168237924575806, 0.9516826868057251, -2.152747392654419, 1.0935105085372925, -2.3588242530822754, -0.10411343723535538], [-0.6746746301651001, -0.5101645588874817, -0.7021055221557617, -0.8050795793533325, -0.5957914590835571, -0.595513641834259, 0.2103486806154251, -0.3163326382637024, 2.0001869201660156, 0.24703660607337952, -0.848473310470581, -2.341430425643921, 0.061786722391843796, -0.029268410056829453, 0.0017024700064212084, -1.4216458797454834], [0.4353138208389282, -0.5272090435028076, -0.10810884833335876, -1.4424514770507812, -0.9993312954902649, 1.568535327911377, -1.1228424310684204, -0.14340250194072723, -0.15133628249168396, 0.289754182100296, 0.1183510422706604, -0.1566673219203949, -1.234012484550476, -1.4812356233596802, 0.3962138891220093, 0.6121767163276672], [-0.5888789892196655, -0.9585403800010681, 0.25397104024887085, 0.09288530051708221, 0.953301191329956, -1.0590161085128784, -0.23156893253326416, -0.2291938066482544, -1.294701337814331, 0.02408318780362606, -1.0693761110305786, 0.4581054747104645, 0.014671088196337223, 0.05978729575872421, -0.017772257328033447, -0.04335509240627289], [0.5280771255493164, 0.23785991966724396, -0.2802308201789856, -1.3195788860321045, 0.10542786866426468, -0.07865066081285477, -1.2248328924179077, -0.3375428020954132, 1.7336440086364746, -1.0364525318145752, -0.25623461604118347, 1.0444953441619873, -0.197576105594635, -0.18093673884868622, 0.5603331327438354, -2.1850640773773193], [0.32632869482040405, -1.3773056268692017, -0.9381980895996094, -1.475707769393921, -0.8146286010742188, -1.2224797010421753, 1.4904515743255615, -0.744943380355835, 0.6184422969818115, -0.5519952178001404, 0.4576416015625, 0.5409498810768127, 0.23341155052185059, -0.6937956809997559, 0.22463670372962952, -0.36847350001335144], [0.5188121795654297, -0.2976652979850769, -1.2275599241256714, -1.285733699798584, -0.2101818025112152, 0.7317890524864197, -0.6457133889198303, -0.18677306175231934, 0.39682233333587646, -1.7723205089569092, 0.9852334260940552, -1.1201421022415161, -0.588272213935852, -0.39671438932418823, -0.5138441920280457, 0.0023413158487528563], [0.2655044496059418, -0.4289681017398834, 0.38328754901885986, 0.614922046661377, -0.8761376142501831, -0.7613234519958496, 0.8222064971923828, 0.01860886998474598, -0.532076895236969, 0.07831594347953796, -0.41250330209732056, 0.45270106196403503, 0.20811021327972412, 0.33569350838661194, -1.0167840719223022, -0.4844900965690613], [0.4851177930831909, -0.7409212589263916, -0.5141381621360779, -0.5788701772689819, 0.05795712396502495, -1.002609372138977, -1.9676847457885742, -0.271796852350235, -0.30311402678489685, -0.4481979012489319, -0.48658376932144165, -0.48989367485046387, -0.5993435382843018, -0.3585348129272461, -0.07503415644168854, -0.5848770141601562], [0.43979412317276, 0.796653151512146, -0.5744132995605469, -0.4318957030773163, -0.6211372017860413, 0.25062334537506104, 1.2170608043670654, 0.08603554964065552, 0.10085880756378174, -0.24883471429347992, 0.6147392988204956, -0.7749731540679932, -0.12691879272460938, -1.349118709564209, 0.09377719461917877, -2.0534377098083496], [0.33807623386383057, 0.6167804598808289, -0.18795694410800934, -0.33133965730667114, 0.26143163442611694, 0.28196173906326294, -0.8012818694114685, 0.5301033854484558, -1.5548031330108643, -0.03823063522577286, -0.401803195476532, -0.9879698157310486, 1.101081371307373, -0.730370283126831, 0.008086483925580978, -0.7096332907676697], [-0.026542264968156815, -0.6113561987876892, -1.837954044342041, -0.2561899721622467, 0.14184053242206573, 1.0594302415847778, -0.7081096172332764, -0.41561266779899597, 0.3594735860824585, -0.30495864152908325, -1.817673683166504, -0.895990252494812, -0.2203884720802307, -0.39264124631881714, -0.20948609709739685, -0.31867656111717224], [-0.203738272190094, 0.35455572605133057, -1.0045135021209717, 0.6862699389457703, 0.05354532599449158, -0.1301005482673645, -0.23923392593860626, -0.5209382176399231, -0.8610019683837891, -0.3138260245323181, -0.010007010772824287, 0.5302711129188538, -1.4201303720474243, -0.2939528524875641, -1.1745465993881226, -1.84243905544281], [-0.5334166884422302, -1.4480684995651245, 0.6261584162712097, -0.021188851445913315, -1.1754584312438965, 0.5117037892341614, 0.17742380499839783, 0.562652587890625, -0.5619357228279114, -0.12183129787445068, -1.0662873983383179, 0.7827389240264893, -1.1584677696228027, -0.8353309035301208, -0.45297515392303467, 0.3620089888572693], [-1.5452027320861816, -0.6032553911209106, -0.8033418655395508, 0.20830899477005005, -0.13223665952682495, 1.0006897449493408, -0.1981125771999359, 0.1925514042377472, -1.3963391780853271, -1.4549083709716797, 0.1667892038822174, -0.31453293561935425, -0.2512018084526062, -1.3966877460479736, -0.22320124506950378, 1.1047474145889282], [-0.9365718960762024, -0.8157950639724731, 0.8915044069290161, -0.8928605914115906, 0.6446206569671631, -0.29983437061309814, -0.5877756476402283, -1.7157561779022217, -0.9579852223396301, 0.11358968913555145, 0.5896281003952026, -1.1838805675506592, -0.1026540994644165, 0.0026968596503138542, -1.6824090480804443, -0.09958339482545853]], [[0.13451696932315826, -0.09310857951641083, -1.1049634218215942, -0.6981194615364075, 0.2886829376220703, -0.7837727069854736, -1.6274174451828003, -1.0437690019607544, -1.5634398460388184, 0.24845744669437408, -0.8242723941802979, -0.17156335711479187, -0.12056318670511246, -0.5991936922073364, -0.13883382081985474, -1.6351404190063477], [-0.737580418586731, -0.6356000900268555, -0.39465415477752686, -0.005718551576137543, -0.049517154693603516, -0.05499089136719704, -1.2702584266662598, 0.5833034515380859, -1.2315599918365479, -1.1730973720550537, -0.8820819854736328, -0.38021668791770935, 0.753862738609314, -1.1991331577301025, 0.1676989495754242, -0.12181848287582397], [0.8695513010025024, -0.9065430164337158, -0.174782395362854, 1.294870138168335, 0.6415013074874878, -1.414297103881836, 0.6311942338943481, 0.011893276125192642, -1.2362701892852783, -0.13375341892242432, -0.6743232011795044, -0.14470845460891724, 0.6993191242218018, 0.6239027976989746, -0.10208811610937119, 0.3411979079246521], [-2.885826587677002, 0.08202938735485077, -1.2877213954925537, -0.7929918169975281, -0.7480108737945557, 0.09708729386329651, -0.10920225083827972, -1.5275437831878662, -0.3351318836212158, 0.15949876606464386, 0.723804771900177, 0.07143348455429077, 0.5316325426101685, -0.25795185565948486, 1.8523021936416626, -0.07020401954650879], [-1.8058414459228516, -1.8148610591888428, 0.5707764029502869, -0.9515848755836487, -0.465520441532135, -0.32593995332717896, 0.39851391315460205, 0.4328918755054474, 0.4004729390144348, 0.3315240740776062, 0.12286646664142609, -1.4303345680236816, 0.7384870052337646, -0.7977141737937927, -1.6965636014938354, -0.43116968870162964], [-0.3260324001312256, -0.21295370161533356, -2.6938958168029785, -0.8891681432723999, -0.09159711003303528, -0.7482119798660278, -0.9662452936172485, 0.7839924097061157, -0.3010373115539551, -0.9819857478141785, -0.6745647192001343, -0.06729403138160706, -0.8347154855728149, -0.09786099195480347, -0.45738255977630615, 0.12442073225975037], [0.7978830337524414, -1.4331438541412354, -0.022303562611341476, 0.6227678060531616, 0.012142112478613853, -0.747734010219574, -0.5022168159484863, -0.4107338488101959, 0.11683487892150879, -0.37426286935806274, 0.2525845766067505, -2.090005874633789, -1.182026743888855, 0.3459811806678772, -0.27708709239959717, -1.5063307285308838], [1.5622224807739258, 0.5489902496337891, -0.3838927745819092, 1.3851691484451294, -0.9411981105804443, -0.6348748803138733, -0.7218469381332397, -0.4548569917678833, -0.2852829694747925, -0.6465085744857788, -0.6134161353111267, -0.004898726940155029, -0.2692790627479553, -0.5165375471115112, -0.36506131291389465, 0.20719394087791443], [-1.2996044158935547, -0.5868914127349854, 0.8798913955688477, 0.05075623095035553, -0.8815402984619141, -1.3990778923034668, -0.4907958507537842, -1.0899349451065063, -0.2758164405822754, -2.4371347427368164, -0.5608581304550171, -0.8631057143211365, 1.1444517374038696, -1.3912339210510254, -0.3424174189567566, 0.6268314123153687], [-0.6341026425361633, 0.805443286895752, 0.13094769418239594, -1.1018584966659546, -1.4821579456329346, -0.657968282699585, 0.9698508977890015, 0.12028934806585312, -0.6792575120925903, -0.4164383113384247, -0.5769501328468323, -0.6198064684867859, -1.098670482635498, -0.7217257022857666, 0.26645031571388245, -0.9799038171768188], [1.408567190170288, -0.3933926820755005, 0.18012288212776184, 0.40056002140045166, -0.35841476917266846, -1.2627291679382324, -1.3438737392425537, -0.5258209705352783, -1.9969806671142578, -1.3307111263275146, -0.8605751395225525, -1.7846633195877075, -0.4553679823875427, 0.13244834542274475, 0.40817975997924805, -1.0025665760040283], [-2.1899173259735107, -0.12916289269924164, 0.9840644598007202, -0.14178022742271423, -1.0410507917404175, 1.446256160736084, -0.06887492537498474, -0.9192167520523071, 0.16622209548950195, 0.5471522808074951, -0.8196526765823364, -1.3088393211364746, -0.47488564252853394, -0.24080049991607666, -0.2380926012992859, -0.7711787223815918], [0.23780031502246857, -0.38582825660705566, -1.3701286315917969, -2.4637584686279297, 0.15631523728370667, -0.1555977761745453, -0.2866056561470032, -1.248349905014038, 0.2296440601348877, -0.3012588322162628, -0.26728737354278564, -0.7555689811706543, -1.4833450317382812, -0.489291250705719, 1.4845190048217773, -0.574939489364624], [-1.2604507207870483, -0.12675681710243225, -0.8677655458450317, -1.1093050241470337, -0.3192787170410156, -1.048527479171753, -1.015472412109375, -0.22318607568740845, 0.7392809987068176, 0.9601641893386841, -1.4796279668807983, -0.24206441640853882, -0.7064012289047241, -0.13178859651088715, -0.21274010837078094, 0.4938611388206482], [1.763014554977417, 0.4501460790634155, -1.5497713088989258, -0.9310518503189087, -0.6201779246330261, 0.038829505443573, -0.04775719344615936, 0.7799891233444214, 0.6126918792724609, -1.330385446548462, -0.3333775997161865, 0.2843955159187317, 0.4690980911254883, 0.4639609754085541, -0.975544810295105, 1.2931873798370361], [-0.23431381583213806, 0.3317389488220215, -0.4784366190433502, -0.3909860849380493, 1.1977035999298096, -0.7187572121620178, -1.899357795715332, -0.4187406301498413, 0.05931226909160614, -0.9157159328460693, -1.338930606842041, -1.430842399597168, 0.019297843798995018, -0.6950634121894836, -1.02901291847229, -1.0550651550292969]], [[-1.3206617832183838, 0.6031481027603149, 0.06224597617983818, -2.4770188331604004, 0.21477806568145752, -1.9291871786117554, -0.3961821496486664, -0.38146984577178955, 0.19057507812976837, -1.0226579904556274, -1.5098090171813965, 1.273205041885376, -0.8314765691757202, -0.7067658305168152, -0.7704758644104004, -0.9607675075531006], [-0.4254659116268158, -0.5499395728111267, -0.47681725025177, 1.3001244068145752, -0.6845926642417908, -0.21158094704151154, 0.06856004148721695, -0.9439897537231445, -0.5893704891204834, 0.5686356425285339, -0.2931874692440033, -1.4850952625274658, -0.9359652400016785, -0.03089352510869503, -0.5575275421142578, -0.21123120188713074], [0.23691262304782867, -0.06886348128318787, -1.7802462577819824, -0.8865349888801575, -1.1752580404281616, 0.03426794707775116, -1.0052423477172852, 0.1059587150812149, 0.35777613520622253, -0.9494945406913757, -0.6837635040283203, -1.1748738288879395, -0.4997865855693817, 0.6308119893074036, -1.354680061340332, -1.2623080015182495]]], "biases": [[-0.45641565322875977, 0.26562464237213135, -0.2235470414161682, 0.4753763675689697, -0.9468518495559692, 0.39364612102508545, -0.6601462364196777, 0.14481544494628906, -0.5127397775650024, -0.5679852962493896, 0.26434871554374695, -0.5810270309448242, -0.4375948905944824, 0.0237913616001606, -0.9478612542152405, 0.17723190784454346], [-0.5508898496627808, 0.21876873075962067, 0.8079929947853088, -0.973913311958313, 0.15234830975532532, -0.27223581075668335, 1.1138863563537598, -1.4094148874282837, 0.3426854908466339, -0.5997800230979919, -0.015933657065033913, -0.4195711016654968, 0.13987688720226288, 0.8659631609916687, -1.0143629312515259, 1.814037799835205], [0.8381490111351013, -0.024328015744686127, -0.2812494933605194, 1.1238086223602295, -0.8037761449813843, -0.10501223802566528, -0.12780031561851501, -0.16363295912742615, -0.1704329550266266, 0.0906563252210617, 0.7291723489761353, -0.14406877756118774, -0.06457838416099548, 0.301952600479126, -0.12134039402008057, 0.43835389614105225], [-0.8449215292930603, -0.2561284005641937, -1.289183259010315, -0.03201053664088249, 0.8698384761810303, -1.3057565689086914, 0.5919647812843323, 0.3937457203865051, 0.4683307707309723, 0.06226561591029167, -1.1078826189041138, 0.6979768872261047, -0.004589763004332781, 0.20551861822605133, -0.4275674819946289, 0.6523378491401672], [0.5909626483917236, 1.7091635465621948, -0.6762744784355164]]}, {"score": 1343, "weights": [[[-0.2427683025598526, -1.1301870346069336, -1.1110529899597168, 0.01951467990875244, -1.0403753519058228, -0.6200559735298157], [0.07076933979988098, -0.5160159468650818, -0.30988866090774536, 0.20235955715179443, 0.2236747145652771, 0.11519524455070496], [-0.48739907145500183, -0.255484014749527, -0.30175697803497314, -0.1354067176580429, -0.38133278489112854, -0.29783135652542114], [-2.2474193572998047, 0.048683881759643555, -0.9267279505729675, -0.881068229675293, -0.6283607482910156, 0.4726664423942566], [-1.5332108736038208, 0.3736438751220703, -0.5024717450141907, 0.15167993307113647, -0.4622540771961212, -0.38081035017967224], [-0.23527273535728455, -0.595940351486206, -1.5172080993652344, -0.02983144484460354, -2.1073827743530273, -1.8710811138153076], [-0.35667556524276733, -0.6443543434143066, -1.258591651916504, -2.497903823852539, 0.007815893739461899, -0.4427313506603241], [-0.5369691848754883, -0.2211940586566925, -2.2482457160949707, -0.6531587839126587, -0.38182467222213745, -0.8605942726135254], [-0.36057257652282715, -0.5063266158103943, -0.7129654884338379, -0.8475472927093506, -0.0939781442284584, -0.4850854277610779], [-0.9281672239303589, -0.2942979037761688, 0.6749904155731201, -0.14392328262329102, -1.273423671722412, 0.1136532574892044], [-1.375475525856018, 0.287554532289505, 0.05735509470105171, -1.2282938957214355, -0.4930848479270935, 0.28624629974365234], [-0.4788500964641571, 0.5441133975982666, -0.4673565626144409, 0.09064063429832458, -0.20423531532287598, -0.08672894537448883], [0.7514383792877197, -0.43975508213043213, 0.13252677023410797, -0.5222427248954773, -0.7867041230201721, -0.9599290490150452], [-1.7334020137786865, 0.5558332800865173, -0.8309952020645142, -0.4287053644657135, -0.3293677568435669, -2.9263224601745605], [-0.5188949108123779, -1.6926429271697998, -0.38978222012519836, -0.6321405172348022, 0.07474200427532196, -0.8772450685501099], [-1.699038028717041, -2.071894645690918, -1.3884860277175903, -0.474148154258728, -0.9404033422470093, 0.9301480054855347]], [[-0.7337421178817749, -0.10664674639701843, 0.9313372373580933, 2.041811466217041, -0.09194014966487885, -2.015127658843994, -1.2120575904846191, 0.2280305027961731, -0.8853539228439331, -0.9631646871566772, 0.7570568323135376, -0.5675637722015381, -0.9396246671676636, 0.2243584394454956, -0.4879446029663086, 0.24474531412124634], [-0.9648317694664001, 1.1213548183441162, 0.4111044406890869, 0.04541240632534027, 0.4771736264228821, -1.35917067527771, -0.2530806064605713, -1.2151597738265991, -0.546339750289917, -0.07245302200317383, -0.11627247184515, -1.418916940689087, -1.2208189964294434, -1.1262376308441162, -1.342853307723999, -0.9517739415168762], [-0.979062020778656, -0.48738861083984375, -0.5958690643310547, -0.4163304567337036, 0.37096989154815674, -0.47113531827926636, -0.6788632869720459, -2.1379315853118896, 0.09104131162166595, 0.4266657829284668, -0.1579795777797699, -2.242194414138794, 0.3638448417186737, -0.1789020299911499, -1.325329303741455, 0.536581814289093], [-1.3371179103851318, -0.13086986541748047, -0.19758006930351257, -1.3816616535186768, 0.6443554162979126, -1.319075584411621, 0.5997857451438904, -0.5894734859466553, 0.619968593120575, 0.44799089431762695, 1.2513878345489502, -0.7650653123855591, 1.110558271408081, -0.3913258910179138, 0.5068954229354858, -0.27554386854171753], [-1.2798271179199219, -0.28417807817459106, -0.17613360285758972, -0.7615631818771362, 0.6997470259666443, -1.912537693977356, 0.6630148887634277, 0.0017925810534507036, 1.1536457538604736, 0.025625787675380707, 0.5512288808822632, 1.2501890659332275, 0.530981183052063, 0.22986942529678345, 0.5150159597396851, -1.0314903259277344], [0.6275585889816284, -0.7976515293121338, 1.6123712062835693, -0.17511475086212158, -0.05380449444055557, -1.101949691772461, -0.0621650293469429, -2.4721999168395996, -0.1696290671825409, 0.08707375079393387, -0.8057703971862793, -0.3837401270866394, 0.34285038709640503, 0.3833249807357788, 0.9216898679733276, -0.1816299557685852], [-2.3246750831604004, 0.6907751560211182, 1.6434659957885742, -1.9844489097595215, -0.2504120469093323, 0.37269851565361023, -0.29056620597839355, -0.13887786865234375, -0.34038132429122925, -0.31612616777420044, -0.2311682403087616, 0.8841297626495361, -0.9844827651977539, -2.459728240966797, 0.20602351427078247, -0.7928454875946045], [-0.040433526039123535, -0.07144661247730255, 0.7465599179267883, -0.8074758052825928, 1.4447522163391113, 0.6306833028793335, -1.3050751686096191, -1.2042405605316162, 0.1869119107723236, -0.38632357120513916, 0.20184892416000366, 0.30524927377700806, -0.4103580713272095, 0.15851619839668274, -0.9251456260681152, 0.6499514579772949], [-0.4037472605705261, -0.05395607650279999, -0.5045685768127441, -1.471174716949463, 1.2330677509307861, 1.2462379932403564, 0.8426551818847656, -0.8607407808303833, 0.8834621906280518, -0.08791583776473999, 0.014876902103424072, -0.1449858397245407, -1.2809169292449951, -0.477789044380188, -0.7499146461486816, 0.8892068862915039], [-0.06635690480470657, -0.45819103717803955, -1.5048713684082031, -0.14069843292236328, -0.15691491961479187, -0.3263816237449646, 0.5526528358459473, -0.07283321768045425, -0.049103349447250366, -1.3081364631652832, -1.7658483982086182, 1.0360405445098877, -0.5288478136062622, 1.247868299484253, -0.7918422222137451, 0.3526573181152344], [-0.9114617109298706, 0.8266241550445557, 0.6376997232437134, -1.328962802886963, -0.5175166130065918, -1.1591427326202393, 0.8133236169815063, 0.7730840444564819, -1.481029748916626, 0.07291799783706665, -1.6471068859100342, -0.7949481010437012, 0.068581223487854, -0.33698201179504395, -1.8752877712249756, 0.6510697603225708], [1.5995163917541504, 0.4107254147529602, -1.2482290267944336, -1.5122005939483643, -0.5272892713546753, -0.08659422397613525, 0.37633103132247925, -1.2991669178009033, -1.630530834197998, -0.012573406100273132, 0.28538787364959717, -0.12005752325057983, -0.11952991783618927, 0.04166256636381149, 0.018349114805459976, -0.7995212078094482], [-1.241961121559143, 0.4194868206977844, -0.30137544870376587, -0.07774649560451508, -0.8741390109062195, -1.0584475994110107, -0.7836157083511353, -0.6291244626045227, -1.6546236276626587, -1.2089815139770508, -0.613242506980896, -0.5541932582855225, 0.4449700117111206, 0.15180175006389618, -1.0551044940948486, -1.4947991371154785], [-0.9812300801277161, -0.852515459060669, 0.738759458065033, -0.9371230006217957, -1.2441411018371582, -1.6026487350463867, -0.7752165794372559, 0.25819170475006104, -1.3870718479156494, -0.38645148277282715, -0.41654545068740845, -1.8550691604614258, -1.6989405155181885, -0.5187480449676514, 0.2994462847709656, -0.4212924838066101], [-0.6911332607269287, -1.3518829345703125, -1.0328329801559448, -0.30172836780548096, 0.6929080486297607, -0.3637843728065491, -0.5157980918884277, 0.31439703702926636, 2.3221960067749023, 0.27301132678985596, 0.6691404581069946, -0.793321967124939, 0.2861764430999756, -0.662460207939148, 0.0986366719007492, 2.366602897644043], [-0.1739354133605957, -0.17017194628715515, -0.3029884696006775, -0.3303912281990051, -0.3787323236465454, 0.8672994375228882, -0.47737419605255127, 0.20027440786361694, 0.37955838441848755, 0.42663389444351196, -1.7135844230651855, 0.8358114957809448, -0.08224524557590485, 1.7100136280059814, -0.5046781301498413, 1.087677001953125]], [[-1.3413372039794922, -0.8164024353027344, -0.2413274645805359, 0.9903589487075806, 0.018554573878645897, 0.5180054903030396, -1.1199114322662354, -1.4744952917099, -0.09715586155653, -0.1159365251660347, 0.6168237924575806, 0.9516826868057251, -2.152747392654419, 1.0935105085372925, -2.3588244915008545, -0.10411343723535538], [-0.6746746301651001, -0.5101645588874817, -0.7021055221557617, -0.8050795793533325, -0.5957914590835571, -0.595513641834259, 0.21034866571426392, -0.3163326382637024, 2.0001869201660156, 0.24703660607337952, -0.848473310470581, -2.341430425643921, 0.061786722391843796, -0.029268410056829453, 0.0017024700064212084, -1.4216458797454834], [0.4353138208389282, -0.5272090435028076, -0.10810884833335876, -1.4424514770507812, -0.9993313550949097, 1.568535327911377, -1.1228424310684204, -0.14340250194072723, -0.15133628249168396, 0.289754182100296, 0.1183510422706604, -0.1566673219203949, -1.234012484550476, -1.4812356233596802, 0.3962138891220093, 0.6121767163276672], [-0.5888789892196655, -0.9585403800010681, 0.25397104024887085, 0.09288530051708221, 0.953301191329956, -1.0590159893035889, -0.23156893253326416, -0.2291938066482544, -1.294701337814331, 0.02408318780362606, -1.0693761110305786, 0.4581054747104645, 0.014671089127659798, 0.05978729575872421, -0.017772257328033447, -0.04335509240627289], [0.5280771255493164, 0.23785991966724396, -0.2802308201789856, -1.3195788860321045, 0.10542786866426468, -0.07865066081285477, -1.2248328924179077, -0.3375428020954132, 1.7336440086364746, -1.0364525318145752, -0.25623461604118347, 1.0444953441619873, -0.197576105594635, -0.18093673884868622, 0.5603331327438354, -2.1850640773773193], [0.32632869482040405, -1.3773058652877808, -0.9381980895996094, -1.475707769393921, -0.8146286010742188, -1.2224797010421753, 1.4904515743255615, -0.744943380355835, 0.6184422969818115, -0.5519952178001404, 0.4576416015625, 0.5409498810768127, 0.23341155052185059, -0.6937956809997559, 0.22463670372962952, -0.36847347021102905], [0.5188121795654297, -0.2976652979850769, -1.2275599241256714, -1.285733699798584, -0.2101818025112152, 0.7317890524864197, -0.6457133889198303, -0.18677306175231934, 0.39682233333587646, -1.7723205089569092, 0.9852334260940552, -1.1201421022415161, -0.588272213935852, -0.39671438932418823, -0.5138441920280457, 0.0023413158487528563], [0.2655044496059418, -0.4289681017398834, 0.38328754901885986, 0.614922046661377, -0.8761376142501831, -0.7613234519958496, 0.8222064971923828, 0.01860886998474598, -0.532076895236969, 0.07831594347953796, -0.41250330209732056, 0.4527010917663574, 0.20811021327972412, 0.33569350838661194, -1.0167840719223022, -0.4844900965690613], [0.4851177930831909, -0.7409212589263916, -0.5141381621360779, -0.5788701772689819, 0.05795712396502495, -1.002609372138977, -1.9676847457885742, -0.271796852350235, -0.30311402678489685, -0.4481979012489319, -0.48658376932144165, -0.48989367485046387, -0.5993435382843018, -0.3585348129272461, -0.07503415644168854, -0.5848770141601562], [0.43979412317276, 0.796653151512146, -0.5744132995605469, -0.4318957030773163, -0.6211372017860413, 0.25062334537506104, 1.2170608043670654, 0.08603554964065552, 0.10085880756378174, -0.24883471429347992, 0.6147392988204956, -0.7749731540679932, -0.12691879272460938, -1.349118709564209, 0.09377719461917877, -2.0534377098083496], [0.33807623386383057, 0.6167804598808289, -0.18795694410800934, -0.33133965730667114, 0.26143163442611694, 0.28196173906326294, -0.8012818694114685, 0.5301033854484558, -1.5548031330108643, -0.03823063522577286, -0.401803195476532, -0.9879698157310486, 1.101081371307373, -0.730370283126831, 0.008086483925580978, -0.7096332907676697], [-0.026542264968156815, -0.6113561987876892, -1.837954044342041, -0.2561899721622467, 0.14184053242206573, 1.0594302415847778, -0.7081096172332764, -0.41561272740364075, 0.3594735860824585, -0.30495864152908325, -1.817673683166504, -0.895990252494812, -0.2203884720802307, -0.39264124631881714, -0.20948609709739685, -0.31867656111717224], [-0.2037382870912552, 0.35455572605133057, -1.0045135021209717, 0.6862698793411255, 0.05354532599449158, -0.1301005482673645, -0.23923395574092865, -0.5209382176399231, -0.8610019683837891, -0.3138260245323181, -0.010007010772824287, 0.5302711129188538, -1.4201303720474243, -0.2939528524875641, -1.1745465993881226, -1.84243905544281], [-0.5334166884422302, -1.4480684995651245, 0.6261584162712097, -0.021188851445913315, -1.1754584312438965, 0.5117037892341614, 0.17742380499839783, 0.562652587890625, -0.5619357228279114, -0.12183129787445068, -1.0662873983383179, 0.7827389240264893, -1.1584677696228027, -0.8353309035301208, -0.45297515392303467, 0.3620089888572693], [-1.5452027320861816, -0.6032554507255554, -0.8033418655395508, 0.20830899477005005, -0.13223665952682495, 1.0006897449493408, -0.1981125771999359, 0.1925514042377472, -1.3963391780853271, -1.4549083709716797, 0.1667892038822174, -0.31453293561935425, -0.2512018084526062, -1.3966877460479736, -0.22320124506950378, 1.1047474145889282], [-0.9365718960762024, -0.8157950639724731, 0.8915044069290161, -0.8928605318069458, 0.6446206569671631, -0.29983437061309814, -0.5877756476402283, -1.7157561779022217, -0.9579852223396301, 0.11358968913555145, 0.5896281003952026, -1.1838805675506592, -0.1026540994644165, 0.0026968596503138542, -1.6824090480804443, -0.09958339482545853]], [[0.13451696932315826, -0.09310857951641083, -1.1049634218215942, -0.6981194019317627, 0.2886829376220703, -0.7837727069854736, -1.6274173259735107, -1.0437690019607544, -1.5634398460388184, 0.24845744669437408, -0.8242723941802979, -0.17156335711479187, -0.12056318670511246, -0.5991936922073364, -0.13883382081985474, -1.6351404190063477], [-0.737580418586731, -0.6356000900268555, -0.39465415477752686, -0.005718551576137543, -0.049517154693603516, -0.05499089136719704, -1.2702584266662598, 0.5833034515380859, -1.2315599918365479, -1.1730973720550537, -0.8820819854736328, -0.38021668791770935, 0.753862738609314, -1.1991331577301025, 0.1676989495754242, -0.12181848287582397], [0.8695513010025024, -0.9065430164337158, -0.1747824102640152, 1.294870138168335, 0.6415013074874878, -1.414297103881836, 0.6311941742897034, 0.011893276125192642, -1.2362701892852783, -0.13375341892242432, -0.6743232011795044, -0.14470845460891724, 0.6993191242218018, 0.6239027380943298, -0.10208811610937119, 0.3411979079246521], [-2.885826587677002, 0.08202938735485077, -1.2877213954925537, -0.7929918169975281, -0.7480108737945557, 0.09708729386329651, -0.10920225083827972, -1.5275439023971558, -0.3351318836212158, 0.15949876606464386, 0.7238046526908875, 0.07143348455429077, 0.5316325426101685, -0.25795185565948486, 1.8523021936416626, -0.07020401954650879], [-1.8058414459228516, -1.8148610591888428, 0.5707764029502869, -0.9515848159790039, -0.465520441532135, -0.32593995332717896, 0.39851391315460205, 0.4328918755054474, 0.4004729390144348, 0.3315240740776062, 0.12286646664142609, -1.4303345680236816, 0.7384870052337646, -0.797714114189148, -1.6965636014938354, -0.43116968870162964], [-0.326032429933548, -0.21295370161533356, -2.6938958168029785, -0.8891681432723999, -0.09159711748361588, -0.7482119798660278, -0.9662452936172485, 0.7839924097061157, -0.3010373115539551, -0.9819857478141785, -0.6745647192001343, -0.06729403138160706, -0.8347154855728149, -0.09786099195480347, -0.45738258957862854, 0.12442073225975037], [0.7978830337524414, -1.433143973350525, -0.022303562611341476, 0.6227677464485168, 0.012142112478613853, -0.747734010219574, -0.5022168159484863, -0.4107338488101959, 0.11683487892150879, -0.37426286935806274, 0.2525845468044281, -2.090005874633789, -1.182026743888855, 0.3459811806678772, -0.27708709239959717, -1.5063307285308838], [1.5622223615646362, 0.5489902496337891, -0.3838927745819092, 1.3851691484451294, -0.9411981105804443, -0.6348748803138733, -0.7218469381332397, -0.4548569917678833, -0.2852829694747925, -0.6465085744857788, -0.6134161353111267, -0.004898726940155029, -0.2692790627479553, -0.5165375471115112, -0.36506131291389465, 0.20719394087791443], [-1.2996044158935547, -0.5868914127349854, 0.8798913955688477, 0.05075622722506523, -0.8815402984619141, -1.3990780115127563, -0.4907958507537842, -1.0899348258972168, -0.2758164405822754, -2.4371347427368164, -0.5608581304550171, -0.8631057143211365, 1.1444517374038696, -1.3912339210510254, -0.3424174189567566, 0.6268314123153687], [-0.6341025829315186, 0.805443286895752, 0.13094769418239594, -1.1018584966659546, -1.4821580648422241, -0.657968282699585, 0.9698508977890015, 0.12028934806585312, -0.6792575120925903, -0.4164383113384247, -0.5769501328468323, -0.6198064684867859, -1.098670482635498, -0.7217257618904114, 0.26645031571388245, -0.9799038171768188], [1.408567190170288, -0.3933926820755005, 0.18012288212776184, 0.40056002140045166, -0.35841476917266846, -1.2627291679382324, -1.3438737392425537, -0.5258209705352783, -1.9969806671142578, -1.3307111263275146, -0.8605751395225525, -1.7846633195877075, -0.4553679823875427, 0.13244834542274475, 0.40817975997924805, -1.0025665760040283], [-2.1899173259735107, -0.12916289269924164, 0.9840644598007202, -0.14178022742271423, -1.0410507917404175, 1.446256160736084, -0.06887492537498474, -0.9192167520523071, 0.16622209548950195, 0.5471522808074951, -0.8196526765823364, -1.3088393211364746, -0.47488564252853394, -0.24080049991607666, -0.2380926012992859, -0.7711787223815918], [0.23780031502246857, -0.38582825660705566, -1.3701286315917969, -2.4637584686279297, 0.15631523728370667, -0.1555977761745453, -0.2866056561470032, -1.248349905014038, 0.2296440601348877, -0.3012588322162628, -0.26728737354278564, -0.7555689811706543, -1.4833450317382812, -0.489291250705719, 1.4845190048217773, -0.574939489364624], [-1.2604507207870483, -0.12675681710243225, -0.8677655458450317, -1.1093050241470337, -0.3192787170410156, -1.048527479171753, -1.015472412109375, -0.22318607568740845, 0.7392809987068176, 0.9601641893386841, -1.4796279668807983, -0.24206441640853882, -0.7064012289047241, -0.13178859651088715, -0.21274010837078094, 0.4938611388206482], [1.763014554977417, 0.4501460790634155, -1.5497714281082153, -0.9310518503189087, -0.6201779246330261, 0.038829505443573, -0.04775719344615936, 0.7799891233444214, 0.6126918792724609, -1.3303855657577515, -0.3333775997161865, 0.2843955159187317, 0.4690980613231659, 0.4639609456062317, -0.9755448698997498, 1.2931873798370361], [-0.23431381583213806, 0.3317389488220215, -0.4784366190433502, -0.3909860849380493, 1.1977035999298096, -0.7187572121620178, -1.899357795715332, -0.4187406301498413, 0.05931226909160614, -0.9157159328460693, -1.338930606842041, -1.430842399597168, 0.019297843798995018, -0.6950634121894836, -1.02901291847229, -1.0550651550292969]], [[-1.3206629753112793, 0.6031481027603149, 0.058730050921440125, -2.4770188331604004, 0.22230766713619232, -1.929696798324585, -0.3958769142627716, -0.6170256733894348, 0.19057504832744598, -1.0226579904556274, -1.5098090171813965, 1.273205041885376, -0.8464249968528748, -0.7067658305168152, -0.7704759240150452, -1.047705888748169], [-0.4254658818244934, -0.5499395728111267, -0.4800422489643097, 1.2766056060791016, -0.6845926642417908, -0.21158093214035034, 0.054707180708646774, -0.9439898133277893, -0.5887128710746765, 0.5705137252807617, -0.35225120186805725, -1.4862831830978394, -0.9359652400016785, -0.03560195490717888, -0.5575275421142578, -0.38323336839675903], [0.23691262304782867, -0.17544494569301605, -1.9940006732940674, -0.8865349888801575, -1.1752580404281616, 0.03438442572951317, -1.2943859100341797, 0.10779428482055664, 0.35777607560157776, -0.9494945406913757, -0.6837635040283203, -1.1748738288879395, -0.4997865855693817, 0.6043568849563599, -1.366831660270691, -1.2509664297103882]]], "biases": [[-0.45641565322875977, 0.26562464237213135, -0.2235470414161682, 0.4753763675689697, -0.9468518495559692, 0.39364612102508545, -0.6601462364196777, 0.14481544494628906, -0.5127397775650024, -0.5679852962493896, 0.26434871554374695, -0.5810270309448242, -0.4375948905944824, 0.0237913616001606, -0.9478612542152405, 0.17723190784454346], [-0.5508898496627808, 0.21876873075962067, 0.8079929947853088, -0.973913311958313, 0.15234830975532532, -0.27223581075668335, 1.1138863563537598, -1.4094148874282837, 0.3426854908466339, -0.5997800230979919, -0.015933657065033913, -0.4195711016654968, 0.13987688720226288, 0.8659631609916687, -1.0143629312515259, 1.814037799835205], [0.8381490111351013, -0.024328015744686127, -0.2812494933605194, 1.1238086223602295, -0.8037761449813843, -0.10501223802566528, -0.12780031561851501, -0.16363295912742615, -0.1704329550266266, 0.0906563252210617, 0.7291723489761353, -0.14406877756118774, -0.06457838416099548, 0.301952600479126, -0.12134039402008057, 0.43835389614105225], [-0.8449215292930603, -0.2561284005641937, -1.289183259010315, -0.03201053664088249, 0.8698384761810303, -1.3057565689086914, 0.5919647812843323, 0.3937457203865051, 0.4683307707309723, 0.06226561591029167, -1.1078826189041138, 0.6979768872261047, -0.004589763004332781, 0.20551861822605133, -0.4275674819946289, 0.6523378491401672], [0.5909626483917236, 1.6506863832473755, -0.7664349675178528]]}, {"score": 1334, "weights": [[[-0.2427683025598526, -1.1301870346069336, -1.1110529899597168, 0.01951467990875244, -1.0403753519058228, -0.6200559735298157], [0.07076933979988098, -0.5160159468650818, -0.30988866090774536, 0.20235955715179443, 0.2236747145652771, 0.11519524455070496], [-0.48739907145500183, -0.255484014749527, -0.30175697803497314, -0.1354067176580429, -0.38133278489112854, -0.29783135652542114], [-2.2474193572998047, 0.048683881759643555, -0.9267279505729675, -0.881068229675293, -0.6283607482910156, 0.4726664423942566], [-1.5332108736038208, 0.3736438751220703, -0.5024717450141907, 0.15167993307113647, -0.4622540771961212, -0.38081035017967224], [-0.23527273535728455, -0.595940351486206, -1.5172080993652344, -0.02983144484460354, -2.1073827743530273, -1.8710811138153076], [-0.35667556524276733, -0.6443543434143066, -1.258591651916504, -2.497903823852539, 0.007815893739461899, -0.4427313506603241], [-0.5369691848754883, -0.2211940586566925, -2.2482457160949707, -0.6531587839126587, -0.38182467222213745, -0.8605942726135254], [-0.36057257652282715, -0.5063266158103943, -0.7129654884338379, -0.8475472927093506, -0.0939781442284584, -0.4850854277610779], [-0.9281672239303589, -0.2942979037761688, 0.6749904155731201, -0.14392328262329102, -1.273423671722412, 0.1136532574892044], [-1.375475525856018, 0.287554532289505, 0.05735509470105171, -1.228294014930725, -0.4930848479270935, 0.28624629974365234], [-0.4788500964641571, 0.5441133975982666, -0.4673565626144409, 0.09064063429832458, -0.20423531532287598, -0.08672894537448883], [0.7514383792877197, -0.43975508213043213, 0.13252677023410797, -0.5222427248954773, -0.7867041230201721, -0.9599290490150452], [-1.7334020137786865, 0.5558332800865173, -0.8309952020645142, -0.4287053346633911, -0.3293677568435669, -2.9263224601745605], [-0.5188949108123779, -1.6926429271697998, -0.38978222012519836, -0.6321405172348022, 0.07474200427532196, -0.8772450685501099], [-1.699038028717041, -2.071894645690918, -1.3884860277175903, -0.474148154258728, -0.9404033422470093, 0.9301480054855347]], [[-0.7337421178817749, -0.10664674639701843, 0.9313372373580933, 2.041811466217041, -0.09194014966487885, -2.015127658843994, -1.2120575904846191, 0.2280305027961731, -0.8853539228439331, -0.9631646871566772, 0.7570568323135376, -0.5675637722015381, -0.9396246671676636, 0.2243584394454956, -0.4879446029663086, 0.24474531412124634], [-0.9648317694664001, 1.1213548183441162, 0.4111044406890869, 0.04541240632534027, 0.4771736264228821, -1.35917067527771, -0.2530806064605713, -1.2151597738265991, -0.546339750289917, -0.07245302200317383, -0.11627247184515, -1.418916940689087, -1.2208189964294434, -1.1262376308441162, -1.342853307723999, -0.9517739415168762], [-0.979062020778656, -0.48738861083984375, -0.5958690643310547, -0.4163304567337036, 0.37096989154815674, -0.47113531827926636, -0.6788632869720459, -2.1379315853118896, 0.09104131162166595, 0.4266657829284668, -0.1579795777797699, -2.242194414138794, 0.3638448417186737, -0.1789020299911499, -1.325329303741455, 0.536581814289093], [-1.3371179103851318, -0.13086986541748047, -0.19758006930351257, -1.3816616535186768, 0.6443554162979126, -1.319075584411621, 0.5997857451438904, -0.5894734859466553, 0.619968593120575, 0.44799089431762695, 1.2513878345489502, -0.7650653123855591, 1.110558271408081, -0.3913258910179138, 0.5068954229354858, -0.27554386854171753], [-1.2798271179199219, -0.28417807817459106, -0.17613360285758972, -0.7615631818771362, 0.6997470259666443, -1.9125374555587769, 0.6630148887634277, 0.0017925809370353818, 1.1536457538604736, 0.025625787675380707, 0.5512288808822632, 1.2501890659332275, 0.530981183052063, 0.22986942529678345, 0.5150159597396851, -1.0314903259277344], [0.6275585889816284, -0.7976515293121338, 1.6123712062835693, -0.17511475086212158, -0.05380449444055557, -1.101949691772461, -0.0621650293469429, -2.4721999168395996, -0.1696290671825409, 0.08707375079393387, -0.8057703971862793, -0.3837401270866394, 0.34285038709640503, 0.3833249807357788, 0.9216898679733276, -0.1816299557685852], [-2.3246750831604004, 0.6907751560211182, 1.6434659957885742, -1.9844489097595215, -0.2504120469093323, 0.3726985454559326, -0.29056620597839355, -0.13887786865234375, -0.34038132429122925, -0.31612616777420044, -0.2311682403087616, 0.8841297626495361, -0.9844827651977539, -2.459728240966797, 0.20602351427078247, -0.7928454875946045], [-0.040433526039123535, -0.07144661247730255, 0.7465599179267883, -0.8074758052825928, 1.4447522163391113, 0.6306833028793335, -1.3050751686096191, -1.2042405605316162, 0.1869119107723236, -0.38632357120513916, 0.20184892416000366, 0.30524927377700806, -0.4103580713272095, 0.15851619839668274, -0.9251455664634705, 0.6499514579772949], [-0.4037472605705261, -0.05395607650279999, -0.5045685768127441, -1.471174716949463, 1.2330677509307861, 1.2462379932403564, 0.8426551818847656, -0.8607407808303833, 0.8834621906280518, -0.08791583776473999, 0.014876902103424072, -0.1449858397245407, -1.2809169292449951, -0.477789044380188, -0.7499146461486816, 0.8892068862915039], [-0.06635690480470657, -0.45819103717803955, -1.5048713684082031, -0.14069843292236328, -0.15691491961479187, -0.3263816237449646, 0.5526528358459473, -0.07283321768045425, -0.049103349447250366, -1.3081364631652832, -1.7658483982086182, 1.0360405445098877, -0.5288478136062622, 1.247868299484253, -0.7918422222137451, 0.3526573181152344], [-0.9114617109298706, 0.8266241550445557, 0.6376997232437134, -1.328962802886963, -0.5175166130065918, -1.1591427326202393, 0.8133236169815063, 0.7730840444564819, -1.481029748916626, 0.07291799783706665, -1.6471068859100342, -0.7949481010437012, 0.068581223487854, -0.33698201179504395, -1.8752877712249756, 0.6510697603225708], [1.5995163917541504, 0.4107254147529602, -1.2482290267944336, -1.5122005939483643, -0.5272892713546753, -0.08659422397613525, 0.37633103132247925, -1.2991669178009033, -1.630530834197998, -0.012573406100273132, 0.28538787364959717, -0.12005752325057983, -0.11952991783618927, 0.04166256636381149, 0.018349114805459976, -0.7995212078094482], [-1.2419610023498535, 0.4194868206977844, -0.30137544870376587, -0.07774649560451508, -0.8741390109062195, -1.0584475994110107, -0.7836157083511353, -0.6291244626045227, -1.6546236276626587, -1.2089815139770508, -0.613242506980896, -0.5541932582855225, 0.4449699819087982, 0.15180175006389618, -1.0551044940948486, -1.4947991371154785], [-0.9812300801277161, -0.852515459060669, 0.738759458065033, -0.9371229410171509, -1.2441411018371582, -1.6026487350463867, -0.7752165794372559, 0.25819170475006104, -1.3870718479156494, -0.38645148277282715, -0.41654545068740845, -1.8550691604614258, -1.6989405155181885, -0.5187480449676514, 0.2994462847709656, -0.4212924838066101], [-0.6911332607269287, -1.3518829345703125, -1.0328329801559448, -0.30172836780548096, 0.6929080486297607, -0.3637843728065491, -0.5157980918884277, 0.31439703702926636, 2.3221960067749023, 0.27301132678985596, 0.6691404581069946, -0.793321967124939, 0.2861764430999756, -0.662460207939148, 0.0986366719007492, 2.366602897644043], [-0.1739354133605957, -0.17017194628715515, -0.3029884696006775, -0.3303912281990051, -0.3787323236465454, 0.8672994375228882, -0.4773741662502289, 0.20027440786361694, 0.37955838441848755, 0.42663389444351196, -1.7135844230651855, 0.8358114957809448, -0.08224524557590485, 1.7100136280059814, -0.5046781301498413, 1.087677001953125]], [[-1.3413372039794922, -0.8164024353027344, -0.2413274645805359, 0.9903589487075806, 0.018554573878645897, 0.5180054903030396, -1.1199114322662354, -1.4744952917099, -0.09715586155653, -0.1159365251660347, 0.6168237924575806, 0.9516826868057251, -2.152747392654419, 1.0935105085372925, -2.3588242530822754, -0.10411343723535538], [-0.6746746301651001, -0.5101645588874817, -0.7021055221557617, -0.8050795793533325, -0.5957914590835571, -0.595513641834259, 0.2103486806154251, -0.3163326382637024, 2.0001869201660156, 0.24703660607337952, -0.848473310470581, -2.341430425643921, 0.061786722391843796, -0.029268410056829453, 0.0017024700064212084, -1.4216458797454834], [0.4353138208389282, -0.5272090435028076, -0.10810884833335876, -1.4424514770507812, -0.9993312954902649, 1.568535327911377, -1.1228424310684204, -0.14340250194072723, -0.15133628249168396, 0.289754182100296, 0.1183510422706604, -0.1566673219203949, -1.234012484550476, -1.4812356233596802, 0.3962138891220093, 0.6121767163276672], [-0.5888789892196655, -0.9585403800010681, 0.25397104024887085, 0.09288530051708221, 0.953301191329956, -1.0590161085128784, -0.23156893253326416, -0.2291938066482544, -1.294701337814331, 0.02408318780362606, -1.0693761110305786, 0.4581054747104645, 0.014671088196337223, 0.05978729575872421, -0.017772257328033447, -0.04335509240627289], [0.5280771255493164, 0.23785991966724396, -0.2802308201789856, -1.3195788860321045, 0.10542786866426468, -0.07865066081285477, -1.2248328924179077, -0.3375428020954132, 1.7336440086364746, -1.0364525318145752, -0.25623461604118347, 1.0444953441619873, -0.197576105594635, -0.18093673884868622, 0.5603331327438354, -2.1850640773773193], [0.32632869482040405, -1.3773056268692017, -0.9381980895996094, -1.475707769393921, -0.8146286010742188, -1.2224797010421753, 1.4904515743255615, -0.744943380355835, 0.6184422969818115, -0.5519952178001404, 0.4576416015625, 0.5409498810768127, 0.23341155052185059, -0.6937956809997559, 0.22463670372962952, -0.36847350001335144], [0.5188121795654297, -0.2976652979850769, -1.2275599241256714, -1.285733699798584, -0.2101818025112152, 0.7317890524864197, -0.6457133889198303, -0.18677306175231934, 0.39682233333587646, -1.7723205089569092, 0.9852334260940552, -1.1201421022415161, -0.588272213935852, -0.39671438932418823, -0.5138441920280457, 0.0023413158487528563], [0.2655044496059418, -0.4289681017398834, 0.38328754901885986, 0.614922046661377, -0.8761376142501831, -0.7613234519958496, 0.8222064971923828, 0.01860886998474598, -0.532076895236969, 0.07831594347953796, -0.41250330209732056, 0.45270106196403503, 0.20811021327972412, 0.33569350838661194, -1.0167840719223022, -0.4844900965690613], [0.4851177930831909, -0.7409212589263916, -0.5141381621360779, -0.5788701772689819, 0.05795712396502495, -1.002609372138977, -1.9676847457885742, -0.271796852350235, -0.30311402678489685, -0.4481979012489319, -0.48658376932144165, -0.48989367485046387, -0.5993435382843018, -0.3585348129272461, -0.07503415644168854, -0.5848770141601562], [0.43979412317276, 0.796653151512146, -0.5744132995605469, -0.4318957030773163, -0.6211372017860413, 0.25062334537506104, 1.2170608043670654, 0.08603554964065552, 0.10085880756378174, -0.24883471429347992, 0.6147392988204956, -0.7749731540679932, -0.12691879272460938, -1.349118709564209, 0.09377719461917877, -2.0534377098083496], [0.33807623386383057, 0.6167804598808289, -0.18795694410800934, -0.33133965730667114, 0.26143163442611694, 0.28196173906326294, -0.8012818694114685, 0.5301033854484558, -1.5548031330108643, -0.03823063522577286, -0.401803195476532, -0.9879698157310486, 1.101081371307373, -0.730370283126831, 0.008086483925580978, -0.7096332907676697], [-0.026542264968156815, -0.6113561987876892, -1.837954044342041, -0.2561899721622467, 0.14184053242206573, 1.0594302415847778, -0.7081096172332764, -0.41561266779899597, 0.3594735860824585, -0.30495864152908325, -1.817673683166504, -0.895990252494812, -0.2203884720802307, -0.39264124631881714, -0.20948609709739685, -0.31867656111717224], [-0.203738272190094, 0.35455572605133057, -1.0045135021209717, 0.6862699389457703, 0.05354532599449158, -0.1301005482673645, -0.23923392593860626, -0.5209382176399231, -0.8610019683837891, -0.3138260245323181, -0.010007010772824287, 0.5302711129188538, -1.4201303720474243, -0.2939528524875641, -1.1745465993881226, -1.84243905544281], [-0.5334166884422302, -1.4480684995651245, 0.6261584162712097, -0.021188851445913315, -1.1754584312438965, 0.5117037892341614, 0.17742380499839783, 0.562652587890625, -0.5619357228279114, -0.12183129787445068, -1.0662873983383179, 0.7827389240264893, -1.1584677696228027, -0.8353309035301208, -0.45297515392303467, 0.3620089888572693], [-1.5452027320861816, -0.6032553911209106, -0.8033418655395508, 0.20830899477005005, -0.13223665952682495, 1.0006897449493408, -0.1981125771999359, 0.1925514042377472, -1.3963391780853271, -1.4549083709716797, 0.1667892038822174, -0.31453293561935425, -0.2512018084526062, -1.3966877460479736, -0.22320124506950378, 1.1047474145889282], [-0.9365718960762024, -0.8157950639724731, 0.8915044069290161, -0.8928605914115906, 0.6446206569671631, -0.29983437061309814, -0.5877756476402283, -1.7157561779022217, -0.9579852223396301, 0.11358968913555145, 0.5896281003952026, -1.1838805675506592, -0.1026540994644165, 0.0026968596503138542, -1.6824090480804443, -0.09958339482545853]], [[0.13451696932315826, -0.09310857951641083, -1.1049634218215942, -0.6981194615364075, 0.2886829376220703, -0.7837727069854736, -1.6274174451828003, -1.0437690019607544, -1.5634398460388184, 0.24845744669437408, -0.8242723941802979, -0.17156335711479187, -0.12056318670511246, -0.5991936922073364, -0.13883382081985474, -1.6351404190063477], [-0.737580418586731, -0.6356000900268555, -0.39465415477752686, -0.005718551576137543, -0.049517154693603516, -0.05499089136719704, -1.2702584266662598, 0.5833034515380859, -1.2315599918365479, -1.1730973720550537, -0.8820819854736328, -0.38021668791770935, 0.753862738609314, -1.1991331577301025, 0.1676989495754242, -0.12181848287582397], [0.8695513010025024, -0.9065430164337158, -0.174782395362854, 1.294870138168335, 0.6415013074874878, -1.414297103881836, 0.6311942338943481, 0.011893276125192642, -1.2362701892852783, -0.13375341892242432, -0.6743232011795044, -0.14470845460891724, 0.6993191242218018, 0.6239027976989746, -0.10208811610937119, 0.3411979079246521], [-2.885826587677002, 0.08202938735485077, -1.2877213954925537, -0.7929918169975281, -0.7480108737945557, 0.09708729386329651, -0.10920225083827972, -1.5275437831878662, -0.3351318836212158, 0.15949876606464386, 0.723804771900177, 0.07143348455429077, 0.5316325426101685, -0.25795185565948486, 1.8523021936416626, -0.07020401954650879], [-1.8058414459228516, -1.8148610591888428, 0.5707764029502869, -0.9515848755836487, -0.465520441532135, -0.32593995332717896, 0.39851391315460205, 0.4328918755054474, 0.4004729390144348, 0.3315240740776062, 0.12286646664142609, -1.4303345680236816, 0.7384870052337646, -0.7977141737937927, -1.6965636014938354, -0.43116968870162964], [-0.3260324001312256, -0.21295370161533356, -2.6938958168029785, -0.8891681432723999, -0.09159711003303528, -0.7482119798660278, -0.9662452936172485, 0.7839924097061157, -0.3010373115539551, -0.9819857478141785, -0.6745647192001343, -0.06729403138160706, -0.8347154855728149, -0.09786099195480347, -0.45738255977630615, 0.12442073225975037], [0.7978830337524414, -1.4331438541412354, -0.022303562611341476, 0.6227678060531616, 0.012142112478613853, -0.747734010219574, -0.5022168159484863, -0.4107338488101959, 0.11683487892150879, -0.37426286935806274, 0.2525845766067505, -2.090005874633789, -1.182026743888855, 0.3459811806678772, -0.27708709239959717, -1.5063307285308838], [1.5622224807739258, 0.5489902496337891, -0.3838927745819092, 1.3851691484451294, -0.9411981105804443, -0.6348748803138733, -0.7218469381332397, -0.4548569917678833, -0.2852829694747925, -0.6465085744857788, -0.6134161353111267, -0.004898726940155029, -0.2692790627479553, -0.5165375471115112, -0.36506131291389465, 0.20719394087791443], [-1.2996044158935547, -0.5868914127349854, 0.8798913955688477, 0.05075623095035553, -0.8815402984619141, -1.3990778923034668, -0.4907958507537842, -1.0899349451065063, -0.2758164405822754, -2.4371347427368164, -0.5608581304550171, -0.8631057143211365, 1.1444517374038696, -1.3912339210510254, -0.3424174189567566, 0.6268314123153687], [-0.6341026425361633, 0.805443286895752, 0.13094769418239594, -1.1018584966659546, -1.4821579456329346, -0.657968282699585, 0.9698508977890015, 0.12028934806585312, -0.6792575120925903, -0.4164383113384247, -0.5769501328468323, -0.6198064684867859, -1.098670482635498, -0.7217257022857666, 0.26645031571388245, -0.9799038171768188], [1.408567190170288, -0.3933926820755005, 0.18012288212776184, 0.40056002140045166, -0.35841476917266846, -1.2627291679382324, -1.3438737392425537, -0.5258209705352783, -1.9969806671142578, -1.3307111263275146, -0.8605751395225525, -1.7846633195877075, -0.4553679823875427, 0.13244834542274475, 0.40817975997924805, -1.0025665760040283], [-2.1899173259735107, -0.12916289269924164, 0.9840644598007202, -0.14178022742271423, -1.0410507917404175, 1.446256160736084, -0.06887492537498474, -0.9192167520523071, 0.16622209548950195, 0.5471522808074951, -0.8196526765823364, -1.3088393211364746, -0.47488564252853394, -0.24080049991607666, -0.2380926012992859, -0.7711787223815918], [0.23780031502246857, -0.38582825660705566, -1.3701286315917969, -2.4637584686279297, 0.15631523728370667, -0.1555977761745453, -0.2866056561470032, -1.248349905014038, 0.2296440601348877, -0.3012588322162628, -0.26728737354278564, -0.7555689811706543, -1.4833450317382812, -0.489291250705719, 1.4845190048217773, -0.574939489364624], [-1.2604507207870483, -0.12675681710243225, -0.8677655458450317, -1.1093050241470337, -0.3192787170410156, -1.048527479171753, -1.015472412109375, -0.22318607568740845, 0.7392809987068176, 0.9601641893386841, -1.4796279668807983, -0.24206441640853882, -0.7064012289047241, -0.13178859651088715, -0.21274010837078094, 0.4938611388206482], [1.763014554977417, 0.4501460790634155, -1.5497713088989258, -0.9310518503189087, -0.6201779246330261, 0.038829505443573, -0.04775719344615936, 0.7799891233444214, 0.6126918792724609, -1.330385446548462, -0.3333775997161865, 0.2843955159187317, 0.4690980911254883, 0.4639609754085541, -0.975544810295105, 1.2931873798370361], [-0.23431381583213806, 0.3317389488220215, -0.4784366190433502, -0.3909860849380493, 1.1977035999298096, -0.7187572121620178, -1.899357795715332, -0.4187406301498413, 0.05931226909160614, -0.9157159328460693, -1.338930606842041, -1.430842399597168, 0.019297843798995018, -0.6950634121894836, -1.02901291847229, -1.0550651550292969]], [[-1.3206617832183838, 0.6031481027603149, 0.06224597617983818, -2.4770188331604004, 0.21477806568145752, -1.9291871786117554, -0.3961821496486664, -0.38146984577178955, 0.19057507812976837, -1.0226579904556274, -1.5098090171813965, 1.273205041885376, -0.8314765691757202, -0.7067658305168152, -0.7704758644104004, -0.9607675075531006], [-0.4254659116268158, -0.5499395728111267, -0.47681725025177, 1.3001244068145752, -0.6845926642417908, -0.21158094704151154, 0.06856004148721695, -0.9439897537231445, -0.5893704891204834, 0.5686356425285339, -0.2931874692440033, -1.4850952625274658, -0.9359652400016785, -0.03089352510869503, -0.5575275421142578, -0.21123120188713074], [0.23691262304782867, -0.06886348128318787, -1.7802462577819824, -0.8865349888801575, -1.1752580404281616, 0.03426794707775116, -1.0052423477172852, 0.1059587150812149, 0.35777613520622253, -0.9494945406913757, -0.6837635040283203, -1.1748738288879395, -0.4997865855693817, 0.6308119893074036, -1.354680061340332, -1.2623080015182495]]], "biases": [[-0.45641565322875977, 0.26562464237213135, -0.2235470414161682, 0.4753763675689697, -0.9468518495559692, 0.39364612102508545, -0.6601462364196777, 0.14481544494628906, -0.5127397775650024, -0.5679852962493896, 0.26434871554374695, -0.5810270309448242, -0.4375948905944824, 0.0237913616001606, -0.9478612542152405, 0.17723190784454346], [-0.5508898496627808, 0.21876873075962067, 0.8079929947853088, -0.973913311958313, 0.15234830975532532, -0.27223581075668335, 1.1138863563537598, -1.4094148874282837, 0.3426854908466339, -0.5997800230979919, -0.015933657065033913, -0.4195711016654968, 0.13987688720226288, 0.8659631609916687, -1.0143629312515259, 1.814037799835205], [0.7816256880760193, -0.04313173517584801, 0.01346391998231411, 1.0589144229888916, -0.5164502263069153, -0.23422284424304962, -0.026846904307603836, -0.4862616956233978, -0.24716447293758392, 0.4619259834289551, 0.6225113272666931, 0.29105162620544434, 0.08334508538246155, 0.4108671247959137, -0.22043395042419434, 0.39185434579849243], [-0.8449215292930603, -0.2561284005641937, -1.289183259010315, -0.03201053664088249, 0.8698384761810303, -1.3057565689086914, 0.5919647812843323, 0.3937457203865051, 0.4683307707309723, 0.06226561591029167, -1.1078826189041138, 0.6979768872261047, -0.004589763004332781, 0.20551861822605133, -0.4275674819946289, 0.6523378491401672], [0.5909626483917236, 1.7091635465621948, -0.6762744784355164]]}, {"score": 1331, "weights": [[[-0.2427683025598526, -1.1301870346069336, -1.1110529899597168, 0.01951467990875244, -1.0403753519058228, -0.6200559735298157], [0.07076933979988098, -0.5160159468650818, -0.30988866090774536, 0.20235955715179443, 0.2236747145652771, 0.11519524455070496], [-0.48739907145500183, -0.255484014749527, -0.30175697803497314, -0.1354067176580429, -0.38133278489112854, -0.29783135652542114], [-2.2474193572998047, 0.048683881759643555, -0.9267279505729675, -0.881068229675293, -0.6283607482910156, 0.4726664423942566], [-1.5332108736038208, 0.3736438751220703, -0.5024717450141907, 0.15167993307113647, -0.4622540771961212, -0.38081035017967224], [-0.23527273535728455, -0.595940351486206, -1.5172080993652344, -0.02983144484460354, -2.1073827743530273, -1.8710811138153076], [-0.35667556524276733, -0.6443543434143066, -1.258591651916504, -2.497903823852539, 0.007815893739461899, -0.4427313506603241], [-0.5369691848754883, -0.2211940586566925, -2.2482457160949707, -0.6531587839126587, -0.38182467222213745, -0.8605942726135254], [-0.36057257652282715, -0.5063266158103943, -0.7129654884338379, -0.8475472927093506, -0.0939781442284584, -0.4850854277610779], [-0.9281672239303589, -0.2942979037761688, 0.6749904155731201, -0.14392328262329102, -1.273423671722412, 0.1136532574892044], [-1.375475525856018, 0.287554532289505, 0.05735509470105171, -1.2282938957214355, -0.4930848479270935, 0.28624629974365234], [-0.4788500964641571, 0.5441133975982666, -0.4673565626144409, 0.09064063429832458, -0.20423531532287598, -0.08672894537448883], [0.7514383792877197, -0.43975508213043213, 0.13252677023410797, -0.5222427248954773, -0.7867041230201721, -0.9599290490150452], [-1.7334020137786865, 0.5558332800865173, -0.8309952020645142, -0.4287053644657135, -0.3293677568435669, -2.9263224601745605], [-0.5188949108123779, -1.6926429271697998, -0.38978222012519836, -0.6321405172348022, 0.07474200427532196, -0.8772450685501099], [-1.699038028717041, -2.071894645690918, -1.3884860277175903, -0.474148154258728, -0.9404033422470093, 0.9301480054855347]], [[-0.7337421178817749, -0.10664674639701843, 0.9313372373580933, 2.041811466217041, -0.09194014966487885, -2.015127658843994, -1.2120575904846191, 0.2280305027961731, -0.8853539228439331, -0.9631646871566772, 0.7570568323135376, -0.5675637722015381, -0.9396246671676636, 0.2243584394454956, -0.4879446029663086, 0.24474531412124634], [-0.9648317694664001, 1.1213548183441162, 0.4111044406890869, 0.04541240632534027, 0.4771736264228821, -1.35917067527771, -0.2530806064605713, -1.2151597738265991, -0.546339750289917, -0.07245302200317383, -0.11627247184515, -1.418916940689087, -1.2208189964294434, -1.1262376308441162, -1.342853307723999, -0.9517739415168762], [-0.979062020778656, -0.48738861083984375, -0.5958690643310547, -0.4163304567337036, 0.37096989154815674, -0.47113531827926636, -0.6788632869720459, -2.1379315853118896, 0.09104131162166595, 0.4266657829284668, -0.1579795777797699, -2.242194414138794, 0.3638448417186737, -0.1789020299911499, -1.325329303741455, 0.536581814289093], [-1.3371179103851318, -0.13086986541748047, -0.19758006930351257, -1.3816616535186768, 0.6443554162979126, -1.319075584411621, 0.5997857451438904, -0.5894734859466553, 0.619968593120575, 0.44799089431762695, 1.2513878345489502, -0.7650653123855591, 1.110558271408081, -0.3913258910179138, 0.5068954229354858, -0.27554386854171753], [-1.2798271179199219, -0.28417807817459106, -0.17613360285758972, -0.7615631818771362, 0.6997470259666443, -1.912537693977356, 0.6630148887634277, 0.0017925810534507036, 1.1536457538604736, 0.025625787675380707, 0.5512288808822632, 1.2501890659332275, 0.530981183052063, 0.22986942529678345, 0.5150159597396851, -1.0314903259277344], [0.6275585889816284, -0.7976515293121338, 1.6123712062835693, -0.17511475086212158, -0.05380449444055557, -1.101949691772461, -0.0621650293469429, -2.4721999168395996, -0.1696290671825409, 0.08707375079393387, -0.8057703971862793, -0.3837401270866394, 0.34285038709640503, 0.3833249807357788, 0.9216898679733276, -0.1816299557685852], [-2.3246750831604004, 0.6907751560211182, 1.6434659957885742, -1.9844489097595215, -0.2504120469093323, 0.37269851565361023, -0.29056620597839355, -0.13887786865234375, -0.34038132429122925, -0.31612616777420044, -0.2311682403087616, 0.8841297626495361, -0.9844827651977539, -2.459728240966797, 0.20602351427078247, -0.7928454875946045], [-0.040433526039123535, -0.07144661247730255, 0.7465599179267883, -0.8074758052825928, 1.4447522163391113, 0.6306833028793335, -1.3050751686096191, -1.2042405605316162, 0.1869119107723236, -0.38632357120513916, 0.20184892416000366, 0.30524927377700806, -0.4103580713272095, 0.15851619839668274, -0.9251456260681152, 0.6499514579772949], [-0.4037472605705261, -0.05395607650279999, -0.5045685768127441, -1.471174716949463, 1.2330677509307861, 1.2462379932403564, 0.8426551818847656, -0.8607407808303833, 0.8834621906280518, -0.08791583776473999, 0.014876902103424072, -0.1449858397245407, -1.2809169292449951, -0.477789044380188, -0.7499146461486816, 0.8892068862915039], [-0.06635690480470657, -0.45819103717803955, -1.5048713684082031, -0.14069843292236328, -0.15691491961479187, -0.3263816237449646, 0.5526528358459473, -0.07283321768045425, -0.049103349447250366, -1.3081364631652832, -1.7658483982086182, 1.0360405445098877, -0.5288478136062622, 1.247868299484253, -0.7918422222137451, 0.3526573181152344], [-0.9114617109298706, 0.8266241550445557, 0.6376997232437134, -1.328962802886963, -0.5175166130065918, -1.1591427326202393, 0.8133236169815063, 0.7730840444564819, -1.481029748916626, 0.07291799783706665, -1.6471068859100342, -0.7949481010437012, 0.068581223487854, -0.33698201179504395, -1.8752877712249756, 0.6510697603225708], [1.5995163917541504, 0.4107254147529602, -1.2482290267944336, -1.5122005939483643, -0.5272892713546753, -0.08659422397613525, 0.37633103132247925, -1.2991669178009033, -1.630530834197998, -0.012573406100273132, 0.28538787364959717, -0.12005752325057983, -0.11952991783618927, 0.04166256636381149, 0.018349114805459976, -0.7995212078094482], [-1.241961121559143, 0.4194868206977844, -0.30137544870376587, -0.07774649560451508, -0.8741390109062195, -1.0584475994110107, -0.7836157083511353, -0.6291244626045227, -1.6546236276626587, -1.2089815139770508, -0.613242506980896, -0.5541932582855225, 0.4449700117111206, 0.15180175006389618, -1.0551044940948486, -1.4947991371154785], [-0.9812300801277161, -0.852515459060669, 0.738759458065033, -0.9371230006217957, -1.2441411018371582, -1.6026487350463867, -0.7752165794372559, 0.25819170475006104, -1.3870718479156494, -0.38645148277282715, -0.41654545068740845, -1.8550691604614258, -1.6989405155181885, -0.5187480449676514, 0.2994462847709656, -0.4212924838066101], [-0.6911332607269287, -1.3518829345703125, -1.0328329801559448, -0.30172836780548096, 0.6929080486297607, -0.3637843728065491, -0.5157980918884277, 0.31439703702926636, 2.3221960067749023, 0.27301132678985596, 0.6691404581069946, -0.793321967124939, 0.2861764430999756, -0.662460207939148, 0.0986366719007492, 2.366602897644043], [-0.1739354133605957, -0.17017194628715515, -0.3029884696006775, -0.3303912281990051, -0.3787323236465454, 0.8672994375228882, -0.47737419605255127, 0.20027440786361694, 0.37955838441848755, 0.42663389444351196, -1.7135844230651855, 0.8358114957809448, -0.08224524557590485, 1.7100136280059814, -0.5046781301498413, 1.087677001953125]], [[-1.3413372039794922, -0.8164024353027344, -0.2413274645805359, 0.9903589487075806, 0.018554573878645897, 0.5180054903030396, -1.1199114322662354, -1.4744952917099, -0.09715586155653, -0.1159365251660347, 0.6168237924575806, 0.9516826868057251, -2.152747392654419, 1.0935105085372925, -2.3588244915008545, -0.10411343723535538], [-0.6746746301651001, -0.5101645588874817, -0.7021055221557617, -0.8050795793533325, -0.5957914590835571, -0.595513641834259, 0.21034866571426392, -0.3163326382637024, 2.0001869201660156, 0.24703660607337952, -0.848473310470581, -2.341430425643921, 0.061786722391843796, -0.029268410056829453, 0.0017024700064212084, -1.4216458797454834], [0.4353138208389282, -0.5272090435028076, -0.10810884833335876, -1.4424514770507812, -0.9993313550949097, 1.568535327911377, -1.1228424310684204, -0.14340250194072723, -0.15133628249168396, 0.289754182100296, 0.1183510422706604, -0.1566673219203949, -1.234012484550476, -1.4812356233596802, 0.3962138891220093, 0.6121767163276672], [-0.5888789892196655, -0.9585403800010681, 0.25397104024887085, 0.09288530051708221, 0.953301191329956, -1.0590159893035889, -0.23156893253326416, -0.2291938066482544, -1.294701337814331, 0.02408318780362606, -1.0693761110305786, 0.4581054747104645, 0.014671089127659798, 0.05978729575872421, -0.017772257328033447, -0.04335509240627289], [0.5280771255493164, 0.23785991966724396, -0.2802308201789856, -1.3195788860321045, 0.10542786866426468, -0.07865066081285477, -1.2248328924179077, -0.3375428020954132, 1.7336440086364746, -1.0364525318145752, -0.25623461604118347, 1.0444953441619873, -0.197576105594635, -0.18093673884868622, 0.5603331327438354, -2.1850640773773193], [0.32632869482040405, -1.3773058652877808, -0.9381980895996094, -1.475707769393921, -0.8146286010742188, -1.2224797010421753, 1.4904515743255615, -0.744943380355835, 0.6184422969818115, -0.5519952178001404, 0.4576416015625, 0.5409498810768127, 0.23341155052185059, -0.6937956809997559, 0.22463670372962952, -0.36847347021102905], [0.5188121795654297, -0.2976652979850769, -1.2275599241256714, -1.285733699798584, -0.2101818025112152, 0.7317890524864197, -0.6457133889198303, -0.18677306175231934, 0.39682233333587646, -1.7723205089569092, 0.9852334260940552, -1.1201421022415161, -0.588272213935852, -0.39671438932418823, -0.5138441920280457, 0.0023413158487528563], [0.2655044496059418, -0.4289681017398834, 0.38328754901885986, 0.614922046661377, -0.8761376142501831, -0.7613234519958496, 0.8222064971923828, 0.01860886998474598, -0.532076895236969, 0.07831594347953796, -0.41250330209732056, 0.4527010917663574, 0.20811021327972412, 0.33569350838661194, -1.0167840719223022, -0.4844900965690613], [0.4851177930831909, -0.7409212589263916, -0.5141381621360779, -0.5788701772689819, 0.05795712396502495, -1.002609372138977, -1.9676847457885742, -0.271796852350235, -0.30311402678489685, -0.4481979012489319, -0.48658376932144165, -0.48989367485046387, -0.5993435382843018, -0.3585348129272461, -0.07503415644168854, -0.5848770141601562], [0.43979412317276, 0.796653151512146, -0.5744132995605469, -0.4318957030773163, -0.6211372017860413, 0.25062334537506104, 1.2170608043670654, 0.08603554964065552, 0.10085880756378174, -0.24883471429347992, 0.6147392988204956, -0.7749731540679932, -0.12691879272460938, -1.349118709564209, 0.09377719461917877, -2.0534377098083496], [0.33807623386383057, 0.6167804598808289, -0.18795694410800934, -0.33133965730667114, 0.26143163442611694, 0.28196173906326294, -0.8012818694114685, 0.5301033854484558, -1.5548031330108643, -0.03823063522577286, -0.401803195476532, -0.9879698157310486, 1.101081371307373, -0.730370283126831, 0.008086483925580978, -0.7096332907676697], [-0.026542264968156815, -0.6113561987876892, -1.837954044342041, -0.2561899721622467, 0.14184053242206573, 1.0594302415847778, -0.7081096172332764, -0.41561272740364075, 0.3594735860824585, -0.30495864152908325, -1.817673683166504, -0.895990252494812, -0.2203884720802307, -0.39264124631881714, -0.20948609709739685, -0.31867656111717224], [-0.2037382870912552, 0.35455572605133057, -1.0045135021209717, 0.6862698793411255, 0.05354532599449158, -0.1301005482673645, -0.23923395574092865, -0.5209382176399231, -0.8610019683837891, -0.3138260245323181, -0.010007010772824287, 0.5302711129188538, -1.4201303720474243, -0.2939528524875641, -1.1745465993881226, -1.84243905544281], [-0.5334166884422302, -1.4480684995651245, 0.6261584162712097, -0.021188851445913315, -1.1754584312438965, 0.5117037892341614, 0.17742380499839783, 0.562652587890625, -0.5619357228279114, -0.12183129787445068, -1.0662873983383179, 0.7827389240264893, -1.1584677696228027, -0.8353309035301208, -0.45297515392303467, 0.3620089888572693], [-1.5452027320861816, -0.6032554507255554, -0.8033418655395508, 0.20830899477005005, -0.13223665952682495, 1.0006897449493408, -0.1981125771999359, 0.1925514042377472, -1.3963391780853271, -1.4549083709716797, 0.1667892038822174, -0.31453293561935425, -0.2512018084526062, -1.3966877460479736, -0.22320124506950378, 1.1047474145889282], [-0.9365718960762024, -0.8157950639724731, 0.8915044069290161, -0.8928605318069458, 0.6446206569671631, -0.29983437061309814, -0.5877756476402283, -1.7157561779022217, -0.9579852223396301, 0.11358968913555145, 0.5896281003952026, -1.1838805675506592, -0.1026540994644165, 0.0026968596503138542, -1.6824090480804443, -0.09958339482545853]], [[0.13451696932315826, -0.09310857951641083, -1.1049634218215942, -0.6981194019317627, 0.2886829376220703, -0.7837727069854736, -1.6274173259735107, -1.0437690019607544, -1.5634398460388184, 0.24845744669437408, -0.8242723941802979, -0.17156335711479187, -0.12056318670511246, -0.5991936922073364, -0.13883382081985474, -1.6351404190063477], [-0.737580418586731, -0.6356000900268555, -0.39465415477752686, -0.005718551576137543, -0.049517154693603516, -0.05499089136719704, -1.2702584266662598, 0.5833034515380859, -1.2315599918365479, -1.1730973720550537, -0.8820819854736328, -0.38021668791770935, 0.753862738609314, -1.1991331577301025, 0.1676989495754242, -0.12181848287582397], [0.8695513010025024, -0.9065430164337158, -0.1747824102640152, 1.294870138168335, 0.6415013074874878, -1.414297103881836, 0.6311941742897034, 0.011893276125192642, -1.2362701892852783, -0.13375341892242432, -0.6743232011795044, -0.14470845460891724, 0.6993191242218018, 0.6239027380943298, -0.10208811610937119, 0.3411979079246521], [-2.885826587677002, 0.08202938735485077, -1.2877213954925537, -0.7929918169975281, -0.7480108737945557, 0.09708729386329651, -0.10920225083827972, -1.5275439023971558, -0.3351318836212158, 0.15949876606464386, 0.7238046526908875, 0.07143348455429077, 0.5316325426101685, -0.25795185565948486, 1.8523021936416626, -0.07020401954650879], [-1.8058414459228516, -1.8148610591888428, 0.5707764029502869, -0.9515848159790039, -0.465520441532135, -0.32593995332717896, 0.39851391315460205, 0.4328918755054474, 0.4004729390144348, 0.3315240740776062, 0.12286646664142609, -1.4303345680236816, 0.7384870052337646, -0.797714114189148, -1.6965636014938354, -0.43116968870162964], [-0.326032429933548, -0.21295370161533356, -2.6938958168029785, -0.8891681432723999, -0.09159711748361588, -0.7482119798660278, -0.9662452936172485, 0.7839924097061157, -0.3010373115539551, -0.9819857478141785, -0.6745647192001343, -0.06729403138160706, -0.8347154855728149, -0.09786099195480347, -0.45738258957862854, 0.12442073225975037], [0.7978830337524414, -1.433143973350525, -0.022303562611341476, 0.6227677464485168, 0.012142112478613853, -0.747734010219574, -0.5022168159484863, -0.4107338488101959, 0.11683487892150879, -0.37426286935806274, 0.2525845468044281, -2.090005874633789, -1.182026743888855, 0.3459811806678772, -0.27708709239959717, -1.5063307285308838], [1.5622223615646362, 0.5489902496337891, -0.3838927745819092, 1.3851691484451294, -0.9411981105804443, -0.6348748803138733, -0.7218469381332397, -0.4548569917678833, -0.2852829694747925, -0.6465085744857788, -0.6134161353111267, -0.004898726940155029, -0.2692790627479553, -0.5165375471115112, -0.36506131291389465, 0.20719394087791443], [-1.2996044158935547, -0.5868914127349854, 0.8798913955688477, 0.05075622722506523, -0.8815402984619141, -1.3990780115127563, -0.4907958507537842, -1.0899348258972168, -0.2758164405822754, -2.4371347427368164, -0.5608581304550171, -0.8631057143211365, 1.1444517374038696, -1.3912339210510254, -0.3424174189567566, 0.6268314123153687], [-0.6341025829315186, 0.805443286895752, 0.13094769418239594, -1.1018584966659546, -1.4821580648422241, -0.657968282699585, 0.9698508977890015, 0.12028934806585312, -0.6792575120925903, -0.4164383113384247, -0.5769501328468323, -0.6198064684867859, -1.098670482635498, -0.7217257618904114, 0.26645031571388245, -0.9799038171768188], [1.408567190170288, -0.3933926820755005, 0.18012288212776184, 0.40056002140045166, -0.35841476917266846, -1.2627291679382324, -1.3438737392425537, -0.5258209705352783, -1.9969806671142578, -1.3307111263275146, -0.8605751395225525, -1.7846633195877075, -0.4553679823875427, 0.13244834542274475, 0.40817975997924805, -1.0025665760040283], [-2.1899173259735107, -0.12916289269924164, 0.9840644598007202, -0.14178022742271423, -1.0410507917404175, 1.446256160736084, -0.06887492537498474, -0.9192167520523071, 0.16622209548950195, 0.5471522808074951, -0.8196526765823364, -1.3088393211364746, -0.47488564252853394, -0.24080049991607666, -0.2380926012992859, -0.7711787223815918], [0.23780031502246857, -0.38582825660705566, -1.3701286315917969, -2.4637584686279297, 0.15631523728370667, -0.1555977761745453, -0.2866056561470032, -1.248349905014038, 0.2296440601348877, -0.3012588322162628, -0.26728737354278564, -0.7555689811706543, -1.4833450317382812, -0.489291250705719, 1.4845190048217773, -0.574939489364624], [-1.2604507207870483, -0.12675681710243225, -0.8677655458450317, -1.1093050241470337, -0.3192787170410156, -1.048527479171753, -1.015472412109375, -0.22318607568740845, 0.7392809987068176, 0.9601641893386841, -1.4796279668807983, -0.24206441640853882, -0.7064012289047241, -0.13178859651088715, -0.21274010837078094, 0.4938611388206482], [1.763014554977417, 0.4501460790634155, -1.5497714281082153, -0.9310518503189087, -0.6201779246330261, 0.038829505443573, -0.04775719344615936, 0.7799891233444214, 0.6126918792724609, -1.3303855657577515, -0.3333775997161865, 0.2843955159187317, 0.4690980613231659, 0.4639609456062317, -0.9755448698997498, 1.2931873798370361], [-0.23431381583213806, 0.3317389488220215, -0.4784366190433502, -0.3909860849380493, 1.1977035999298096, -0.7187572121620178, -1.899357795715332, -0.4187406301498413, 0.05931226909160614, -0.9157159328460693, -1.338930606842041, -1.430842399597168, 0.019297843798995018, -0.6950634121894836, -1.02901291847229, -1.0550651550292969]], [[-1.3206629753112793, 0.6031481027603149, 0.058730050921440125, -2.4770188331604004, 0.22230766713619232, -1.929696798324585, -0.3958769142627716, -0.6170256733894348, 0.19057504832744598, -1.0226579904556274, -1.5098090171813965, 1.273205041885376, -0.8464249968528748, -0.7067658305168152, -0.7704759240150452, -1.047705888748169], [-0.4254658818244934, -0.5499395728111267, -0.4800422489643097, 1.2766056060791016, -0.6845926642417908, -0.21158093214035034, 0.054707180708646774, -0.9439898133277893, -0.5887128710746765, 0.5705137252807617, -0.35225120186805725, -1.4862831830978394, -0.9359652400016785, -0.03560195490717888, -0.5575275421142578, -0.38323336839675903], [0.23691262304782867, -0.17544494569301605, -1.9940006732940674, -0.8865349888801575, -1.1752580404281616, 0.03438442572951317, -1.2943859100341797, 0.10779428482055664, 0.35777607560157776, -0.9494945406913757, -0.6837635040283203, -1.1748738288879395, -0.4997865855693817, 0.6043568849563599, -1.366831660270691, -1.2509664297103882]]], "biases": [[-0.45641565322875977, 0.26562464237213135, -0.2235470414161682, 0.4753763675689697, -0.9468518495559692, 0.39364612102508545, -0.6601462364196777, 0.14481544494628906, -0.5127397775650024, -0.5679852962493896, 0.26434871554374695, -0.5810270309448242, -0.4375948905944824, 0.0237913616001606, -0.9478612542152405, 0.17723190784454346], [-0.5508898496627808, 0.21876873075962067, 0.8079929947853088, -0.973913311958313, 0.15234830975532532, -0.27223581075668335, 1.1138863563537598, -1.4094148874282837, 0.3426854908466339, -0.5997800230979919, -0.015933657065033913, -0.4195711016654968, 0.13987688720226288, 0.8659631609916687, -1.0143629312515259, 1.814037799835205], [0.8381490111351013, -0.024328015744686127, -0.2812494933605194, 1.1238086223602295, -0.8037761449813843, -0.10501223802566528, -0.12780031561851501, -0.16363295912742615, -0.1704329550266266, 0.0906563252210617, 0.7291723489761353, -0.14406877756118774, -0.06457838416099548, 0.301952600479126, -0.12134039402008057, 0.43835389614105225], [-0.8449215292930603, -0.2561284005641937, -1.289183259010315, -0.03201053664088249, 0.8698384761810303, -1.3057565689086914, 0.5919647812843323, 0.3937457203865051, 0.4683307707309723, 0.06226561591029167, -1.1078826189041138, 0.6979768872261047, -0.004589763004332781, 0.20551861822605133, -0.4275674819946289, 0.6523378491401672], [0.5909626483917236, 1.6506863832473755, -0.7664349675178528]]}, {"score": 1304, "weights": [[[-0.2427683025598526, -1.1301870346069336, -1.1110529899597168, 0.01951467990875244, -1.0403753519058228, -0.6200559735298157], [0.07076933979988098, -0.5160159468650818, -0.30988866090774536, 0.20235955715179443, 0.2236747145652771, 0.11519524455070496], [-0.48739907145500183, -0.255484014749527, -0.30175697803497314, -0.1354067176580429, -0.38133278489112854, -0.29783135652542114], [-2.2474193572998047, 0.048683881759643555, -0.9267279505729675, -0.881068229675293, -0.6283607482910156, 0.4726664423942566], [-1.5332108736038208, 0.3736438751220703, -0.5024717450141907, 0.15167993307113647, -0.4622540771961212, -0.38081035017967224], [-0.23527273535728455, -0.595940351486206, -1.5172080993652344, -0.02983144484460354, -2.1073827743530273, -1.8710811138153076], [-0.35667556524276733, -0.6443543434143066, -1.258591651916504, -2.497903823852539, 0.007815893739461899, -0.4427313506603241], [-0.5369691848754883, -0.2211940586566925, -2.2482457160949707, -0.6531587839126587, -0.38182467222213745, -0.8605942726135254], [-0.36057257652282715, -0.5063266158103943, -0.7129654884338379, -0.8475472927093506, -0.0939781442284584, -0.4850854277610779], [-0.9281672239303589, -0.2942979037761688, 0.6749904155731201, -0.14392328262329102, -1.273423671722412, 0.1136532574892044], [-1.375475525856018, 0.287554532289505, 0.05735509470105171, -1.228294014930725, -0.4930848479270935, 0.28624629974365234], [-0.4788500964641571, 0.5441133975982666, -0.4673565626144409, 0.09064063429832458, -0.20423531532287598, -0.08672894537448883], [0.7514383792877197, -0.43975508213043213, 0.13252677023410797, -0.5222427248954773, -0.7867041230201721, -0.9599290490150452], [-1.7334020137786865, 0.5558332800865173, -0.8309952020645142, -0.4287053346633911, -0.3293677568435669, -2.9263224601745605], [-0.5188949108123779, -1.6926429271697998, -0.38978222012519836, -0.6321405172348022, 0.07474200427532196, -0.8772450685501099], [-1.699038028717041, -2.071894645690918, -1.3884860277175903, -0.474148154258728, -0.9404033422470093, 0.9301480054855347]], [[-0.7337421178817749, -0.10664674639701843, 0.9313372373580933, 2.041811466217041, -0.09194014966487885, -2.015127658843994, -1.2120575904846191, 0.2280305027961731, -0.8853539228439331, -0.9631646871566772, 0.7570568323135376, -0.5675637722015381, -0.9396246671676636, 0.2243584394454956, -0.4879446029663086, 0.24474531412124634], [-0.9648317694664001, 1.1213548183441162, 0.4111044406890869, 0.04541240632534027, 0.4771736264228821, -1.35917067527771, -0.2530806064605713, -1.2151597738265991, -0.546339750289917, -0.07245302200317383, -0.11627247184515, -1.418916940689087, -1.2208189964294434, -1.1262376308441162, -1.342853307723999, -0.9517739415168762], [-0.979062020778656, -0.48738861083984375, -0.5958690643310547, -0.4163304567337036, 0.37096989154815674, -0.47113531827926636, -0.6788632869720459, -2.1379315853118896, 0.09104131162166595, 0.4266657829284668, -0.1579795777797699, -2.242194414138794, 0.3638448417186737, -0.1789020299911499, -1.325329303741455, 0.536581814289093], [-1.3371179103851318, -0.13086986541748047, -0.19758006930351257, -1.3816616535186768, 0.6443554162979126, -1.319075584411621, 0.5997857451438904, -0.5894734859466553, 0.619968593120575, 0.44799089431762695, 1.2513878345489502, -0.7650653123855591, 1.110558271408081, -0.3913258910179138, 0.5068954229354858, -0.27554386854171753], [-1.2798271179199219, -0.28417807817459106, -0.17613360285758972, -0.7615631818771362, 0.6997470259666443, -1.9125374555587769, 0.6630148887634277, 0.0017925809370353818, 1.1536457538604736, 0.025625787675380707, 0.5512288808822632, 1.2501890659332275, 0.530981183052063, 0.22986942529678345, 0.5150159597396851, -1.0314903259277344], [0.6275585889816284, -0.7976515293121338, 1.6123712062835693, -0.17511475086212158, -0.05380449444055557, -1.101949691772461, -0.0621650293469429, -2.4721999168395996, -0.1696290671825409, 0.08707375079393387, -0.8057703971862793, -0.3837401270866394, 0.34285038709640503, 0.3833249807357788, 0.9216898679733276, -0.1816299557685852], [-2.3246750831604004, 0.6907751560211182, 1.6434659957885742, -1.9844489097595215, -0.2504120469093323, 0.3726985454559326, -0.29056620597839355, -0.13887786865234375, -0.34038132429122925, -0.31612616777420044, -0.2311682403087616, 0.8841297626495361, -0.9844827651977539, -2.459728240966797, 0.20602351427078247, -0.7928454875946045], [-0.040433526039123535, -0.07144661247730255, 0.7465599179267883, -0.8074758052825928, 1.4447522163391113, 0.6306833028793335, -1.3050751686096191, -1.2042405605316162, 0.1869119107723236, -0.38632357120513916, 0.20184892416000366, 0.30524927377700806, -0.4103580713272095, 0.15851619839668274, -0.9251455664634705, 0.6499514579772949], [-0.4037472605705261, -0.05395607650279999, -0.5045685768127441, -1.471174716949463, 1.2330677509307861, 1.2462379932403564, 0.8426551818847656, -0.8607407808303833, 0.8834621906280518, -0.08791583776473999, 0.014876902103424072, -0.1449858397245407, -1.2809169292449951, -0.477789044380188, -0.7499146461486816, 0.8892068862915039], [-0.06635690480470657, -0.45819103717803955, -1.5048713684082031, -0.14069843292236328, -0.15691491961479187, -0.3263816237449646, 0.5526528358459473, -0.07283321768045425, -0.049103349447250366, -1.3081364631652832, -1.7658483982086182, 1.0360405445098877, -0.5288478136062622, 1.247868299484253, -0.7918422222137451, 0.3526573181152344], [-0.9114617109298706, 0.8266241550445557, 0.6376997232437134, -1.328962802886963, -0.5175166130065918, -1.1591427326202393, 0.8133236169815063, 0.7730840444564819, -1.481029748916626, 0.07291799783706665, -1.6471068859100342, -0.7949481010437012, 0.068581223487854, -0.33698201179504395, -1.8752877712249756, 0.6510697603225708], [1.5995163917541504, 0.4107254147529602, -1.2482290267944336, -1.5122005939483643, -0.5272892713546753, -0.08659422397613525, 0.37633103132247925, -1.2991669178009033, -1.630530834197998, -0.012573406100273132, 0.28538787364959717, -0.12005752325057983, -0.11952991783618927, 0.04166256636381149, 0.018349114805459976, -0.7995212078094482], [-1.2419610023498535, 0.4194868206977844, -0.30137544870376587, -0.07774649560451508, -0.8741390109062195, -1.0584475994110107, -0.7836157083511353, -0.6291244626045227, -1.6546236276626587, -1.2089815139770508, -0.613242506980896, -0.5541932582855225, 0.4449699819087982, 0.15180175006389618, -1.0551044940948486, -1.4947991371154785], [-0.9812300801277161, -0.852515459060669, 0.738759458065033, -0.9371229410171509, -1.2441411018371582, -1.6026487350463867, -0.7752165794372559, 0.25819170475006104, -1.3870718479156494, -0.38645148277282715, -0.41654545068740845, -1.8550691604614258, -1.6989405155181885, -0.5187480449676514, 0.2994462847709656, -0.4212924838066101], [-0.6911332607269287, -1.3518829345703125, -1.0328329801559448, -0.30172836780548096, 0.6929080486297607, -0.3637843728065491, -0.5157980918884277, 0.31439703702926636, 2.3221960067749023, 0.27301132678985596, 0.6691404581069946, -0.793321967124939, 0.2861764430999756, -0.662460207939148, 0.0986366719007492, 2.366602897644043], [-0.1739354133605957, -0.17017194628715515, -0.3029884696006775, -0.3303912281990051, -0.3787323236465454, 0.8672994375228882, -0.4773741662502289, 0.20027440786361694, 0.37955838441848755, 0.42663389444351196, -1.7135844230651855, 0.8358114957809448, -0.08224524557590485, 1.7100136280059814, -0.5046781301498413, 1.087677001953125]], [[-1.3413372039794922, -0.8164024353027344, -0.2413274645805359, 0.9903589487075806, 0.018554573878645897, 0.5180054903030396, -1.1199114322662354, -1.4744952917099, -0.09715586155653, -0.1159365251660347, 0.6168237924575806, 0.9516826868057251, -2.152747392654419, 1.0935105085372925, -2.3588242530822754, -0.10411343723535538], [-0.6746746301651001, -0.5101645588874817, -0.7021055221557617, -0.8050795793533325, -0.5957914590835571, -0.595513641834259, 0.2103486806154251, -0.3163326382637024, 2.0001869201660156, 0.24703660607337952, -0.848473310470581, -2.341430425643921, 0.061786722391843796, -0.029268410056829453, 0.0017024700064212084, -1.4216458797454834], [0.4353138208389282, -0.5272090435028076, -0.10810884833335876, -1.4424514770507812, -0.9993312954902649, 1.568535327911377, -1.1228424310684204, -0.14340250194072723, -0.15133628249168396, 0.289754182100296, 0.1183510422706604, -0.1566673219203949, -1.234012484550476, -1.4812356233596802, 0.3962138891220093, 0.6121767163276672], [-0.5888789892196655, -0.9585403800010681, 0.25397104024887085, 0.09288530051708221, 0.953301191329956, -1.0590161085128784, -0.23156893253326416, -0.2291938066482544, -1.294701337814331, 0.02408318780362606, -1.0693761110305786, 0.4581054747104645, 0.014671088196337223, 0.05978729575872421, -0.017772257328033447, -0.04335509240627289], [0.5280771255493164, 0.23785991966724396, -0.2802308201789856, -1.3195788860321045, 0.10542786866426468, -0.07865066081285477, -1.2248328924179077, -0.3375428020954132, 1.7336440086364746, -1.0364525318145752, -0.25623461604118347, 1.0444953441619873, -0.197576105594635, -0.18093673884868622, 0.5603331327438354, -2.1850640773773193], [0.32632869482040405, -1.3773056268692017, -0.9381980895996094, -1.475707769393921, -0.8146286010742188, -1.2224797010421753, 1.4904515743255615, -0.744943380355835, 0.6184422969818115, -0.5519952178001404, 0.4576416015625, 0.5409498810768127, 0.23341155052185059, -0.6937956809997559, 0.22463670372962952, -0.36847350001335144], [0.5188121795654297, -0.2976652979850769, -1.2275599241256714, -1.285733699798584, -0.2101818025112152, 0.7317890524864197, -0.6457133889198303, -0.18677306175231934, 0.39682233333587646, -1.7723205089569092, 0.9852334260940552, -1.1201421022415161, -0.588272213935852, -0.39671438932418823, -0.5138441920280457, 0.0023413158487528563], [0.2655044496059418, -0.4289681017398834, 0.38328754901885986, 0.614922046661377, -0.8761376142501831, -0.7613234519958496, 0.8222064971923828, 0.01860886998474598, -0.532076895236969, 0.07831594347953796, -0.41250330209732056, 0.45270106196403503, 0.20811021327972412, 0.33569350838661194, -1.0167840719223022, -0.4844900965690613], [0.4851177930831909, -0.7409212589263916, -0.5141381621360779, -0.5788701772689819, 0.05795712396502495, -1.002609372138977, -1.9676847457885742, -0.271796852350235, -0.30311402678489685, -0.4481979012489319, -0.48658376932144165, -0.48989367485046387, -0.5993435382843018, -0.3585348129272461, -0.07503415644168854, -0.5848770141601562], [0.43979412317276, 0.796653151512146, -0.5744132995605469, -0.4318957030773163, -0.6211372017860413, 0.25062334537506104, 1.2170608043670654, 0.08603554964065552, 0.10085880756378174, -0.24883471429347992, 0.6147392988204956, -0.7749731540679932, -0.12691879272460938, -1.349118709564209, 0.09377719461917877, -2.0534377098083496], [0.33807623386383057, 0.6167804598808289, -0.18795694410800934, -0.33133965730667114, 0.26143163442611694, 0.28196173906326294, -0.8012818694114685, 0.5301033854484558, -1.5548031330108643, -0.03823063522577286, -0.401803195476532, -0.9879698157310486, 1.101081371307373, -0.730370283126831, 0.008086483925580978, -0.7096332907676697], [-0.026542264968156815, -0.6113561987876892, -1.837954044342041, -0.2561899721622467, 0.14184053242206573, 1.0594302415847778, -0.7081096172332764, -0.41561266779899597, 0.3594735860824585, -0.30495864152908325, -1.817673683166504, -0.895990252494812, -0.2203884720802307, -0.39264124631881714, -0.20948609709739685, -0.31867656111717224], [-0.203738272190094, 0.35455572605133057, -1.0045135021209717, 0.6862699389457703, 0.05354532599449158, -0.1301005482673645, -0.23923392593860626, -0.5209382176399231, -0.8610019683837891, -0.3138260245323181, -0.010007010772824287, 0.5302711129188538, -1.4201303720474243, -0.2939528524875641, -1.1745465993881226, -1.84243905544281], [-0.5334166884422302, -1.4480684995651245, 0.6261584162712097, -0.021188851445913315, -1.1754584312438965, 0.5117037892341614, 0.17742380499839783, 0.562652587890625, -0.5619357228279114, -0.12183129787445068, -1.0662873983383179, 0.7827389240264893, -1.1584677696228027, -0.8353309035301208, -0.45297515392303467, 0.3620089888572693], [-1.5452027320861816, -0.6032553911209106, -0.8033418655395508, 0.20830899477005005, -0.13223665952682495, 1.0006897449493408, -0.1981125771999359, 0.1925514042377472, -1.3963391780853271, -1.4549083709716797, 0.1667892038822174, -0.31453293561935425, -0.2512018084526062, -1.3966877460479736, -0.22320124506950378, 1.1047474145889282], [-0.9365718960762024, -0.8157950639724731, 0.8915044069290161, -0.8928605914115906, 0.6446206569671631, -0.29983437061309814, -0.5877756476402283, -1.7157561779022217, -0.9579852223396301, 0.11358968913555145, 0.5896281003952026, -1.1838805675506592, -0.1026540994644165, 0.0026968596503138542, -1.6824090480804443, -0.09958339482545853]], [[0.13451696932315826, -0.09310857951641083, -1.1049634218215942, -0.6981194615364075, 0.2886829376220703, -0.7837727069854736, -1.6274174451828003, -1.0437690019607544, -1.5634398460388184, 0.24845744669437408, -0.8242723941802979, -0.17156335711479187, -0.12056318670511246, -0.5991936922073364, -0.13883382081985474, -1.6351404190063477], [-0.737580418586731, -0.6356000900268555, -0.39465415477752686, -0.005718551576137543, -0.049517154693603516, -0.05499089136719704, -1.2702584266662598, 0.5833034515380859, -1.2315599918365479, -1.1730973720550537, -0.8820819854736328, -0.38021668791770935, 0.753862738609314, -1.1991331577301025, 0.1676989495754242, -0.12181848287582397], [0.8695513010025024, -0.9065430164337158, -0.174782395362854, 1.294870138168335, 0.6415013074874878, -1.414297103881836, 0.6311942338943481, 0.011893276125192642, -1.2362701892852783, -0.13375341892242432, -0.6743232011795044, -0.14470845460891724, 0.6993191242218018, 0.6239027976989746, -0.10208811610937119, 0.3411979079246521], [-2.885826587677002, 0.08202938735485077, -1.2877213954925537, -0.7929918169975281, -0.7480108737945557, 0.09708729386329651, -0.10920225083827972, -1.5275437831878662, -0.3351318836212158, 0.15949876606464386, 0.723804771900177, 0.07143348455429077, 0.5316325426101685, -0.25795185565948486, 1.8523021936416626, -0.07020401954650879], [-1.8058414459228516, -1.8148610591888428, 0.5707764029502869, -0.9515848755836487, -0.465520441532135, -0.32593995332717896, 0.39851391315460205, 0.4328918755054474, 0.4004729390144348, 0.3315240740776062, 0.12286646664142609, -1.4303345680236816, 0.7384870052337646, -0.7977141737937927, -1.6965636014938354, -0.43116968870162964], [-0.3260324001312256, -0.21295370161533356, -2.6938958168029785, -0.8891681432723999, -0.09159711003303528, -0.7482119798660278, -0.9662452936172485, 0.7839924097061157, -0.3010373115539551, -0.9819857478141785, -0.6745647192001343, -0.06729403138160706, -0.8347154855728149, -0.09786099195480347, -0.45738255977630615, 0.12442073225975037], [0.7978830337524414, -1.4331438541412354, -0.022303562611341476, 0.6227678060531616, 0.012142112478613853, -0.747734010219574, -0.5022168159484863, -0.4107338488101959, 0.11683487892150879, -0.37426286935806274, 0.2525845766067505, -2.090005874633789, -1.182026743888855, 0.3459811806678772, -0.27708709239959717, -1.5063307285308838], [1.5622224807739258, 0.5489902496337891, -0.3838927745819092, 1.3851691484451294, -0.9411981105804443, -0.6348748803138733, -0.7218469381332397, -0.4548569917678833, -0.2852829694747925, -0.6465085744857788, -0.6134161353111267, -0.004898726940155029, -0.2692790627479553, -0.5165375471115112, -0.36506131291389465, 0.20719394087791443], [-1.2996044158935547, -0.5868914127349854, 0.8798913955688477, 0.05075623095035553, -0.8815402984619141, -1.3990778923034668, -0.4907958507537842, -1.0899349451065063, -0.2758164405822754, -2.4371347427368164, -0.5608581304550171, -0.8631057143211365, 1.1444517374038696, -1.3912339210510254, -0.3424174189567566, 0.6268314123153687], [-0.6341026425361633, 0.805443286895752, 0.13094769418239594, -1.1018584966659546, -1.4821579456329346, -0.657968282699585, 0.9698508977890015, 0.12028934806585312, -0.6792575120925903, -0.4164383113384247, -0.5769501328468323, -0.6198064684867859, -1.098670482635498, -0.7217257022857666, 0.26645031571388245, -0.9799038171768188], [1.408567190170288, -0.3933926820755005, 0.18012288212776184, 0.40056002140045166, -0.35841476917266846, -1.2627291679382324, -1.3438737392425537, -0.5258209705352783, -1.9969806671142578, -1.3307111263275146, -0.8605751395225525, -1.7846633195877075, -0.4553679823875427, 0.13244834542274475, 0.40817975997924805, -1.0025665760040283], [-2.1899173259735107, -0.12916289269924164, 0.9840644598007202, -0.14178022742271423, -1.0410507917404175, 1.446256160736084, -0.06887492537498474, -0.9192167520523071, 0.16622209548950195, 0.5471522808074951, -0.8196526765823364, -1.3088393211364746, -0.47488564252853394, -0.24080049991607666, -0.2380926012992859, -0.7711787223815918], [0.23780031502246857, -0.38582825660705566, -1.3701286315917969, -2.4637584686279297, 0.15631523728370667, -0.1555977761745453, -0.2866056561470032, -1.248349905014038, 0.2296440601348877, -0.3012588322162628, -0.26728737354278564, -0.7555689811706543, -1.4833450317382812, -0.489291250705719, 1.4845190048217773, -0.574939489364624], [-1.2604507207870483, -0.12675681710243225, -0.8677655458450317, -1.1093050241470337, -0.3192787170410156, -1.048527479171753, -1.015472412109375, -0.22318607568740845, 0.7392809987068176, 0.9601641893386841, -1.4796279668807983, -0.24206441640853882, -0.7064012289047241, -0.13178859651088715, -0.21274010837078094, 0.4938611388206482], 